{"learner":{"attributes":{"scikit_learn":"{\"_estimator_type\": \"classifier\"}"},"feature_names":["Unnamed: 0","Flight","DayOfWeek","Time","Length"],"feature_types":["int","float","float","float","float"],"gradient_booster":{"model":{"gbtree_model_param":{"num_parallel_tree":"1","num_trees":"100"},"iteration_indptr":[0,1,2,3,4,5,6,7,8,9,10,11,12,13,14,15,16,17,18,19,20,21,22,23,24,25,26,27,28,29,30,31,32,33,34,35,36,37,38,39,40,41,42,43,44,45,46,47,48,49,50,51,52,53,54,55,56,57,58,59,60,61,62,63,64,65,66,67,68,69,70,71,72,73,74,75,76,77,78,79,80,81,82,83,84,85,86,87,88,89,90,91,92,93,94,95,96,97,98,99,100],"tree_info":[0,0,0,0,0,0,0,0,0,0,0,0,0,0,0,0,0,0,0,0,0,0,0,0,0,0,0,0,0,0,0,0,0,0,0,0,0,0,0,0,0,0,0,0,0,0,0,0,0,0,0,0,0,0,0,0,0,0,0,0,0,0,0,0,0,0,0,0,0,0,0,0,0,0,0,0,0,0,0,0,0,0,0,0,0,0,0,0,0,0,0,0,0,0,0,0,0,0,0,0],"trees":[{"base_weights":[1.09083956E-7,-4.6833763E-1,2.018932E-1,-7.2235787E-1,-3.2390442E-1,3.290573E-1,-3.3058733E-1,-8.002277E-1,-3.8920543E-1,-2.1492906E-1,-7.317515E-1,-5.141379E-2,4.8246002E-1,-4.6885455E-1,-2.197025E-1,-7.282772E-1,-1.0944498E0,-7.565024E-1,-2.6824912E-1,-4.3490714E-1,8.1930095E-3,-1.0420557E0,-4.8104417E-1,-2.2979395E-1,1.0780204E-1,5.9550035E-1,2.8590056E-1,-5.6955385E-1,-3.1569836E-1,2.6092766E-2,-2.6903895E-1,-8.422569E-1,-5.9532845E-1,-1.4503021E0,-7.9013646E-1,-3.245159E-1,-8.1513476E-1,-8.759485E-2,-7.6037395E-1,-3.3929843E-1,-5.997998E-1,-1.4964187E-1,1.6565773E-1,-1.1736451E0,-6.154488E-1,-4.504098E-1,-9.6298474E-1,-1.5245818E-1,-4.6799827E-1,-1.426303E-1,2.9820484E-1,4.683488E-1,7.017604E-1,2.4618733E-1,7.809817E-1,-7.827975E-1,-4.6385366E-1,-4.627329E-1,-1.545789E-1,1.5222885E-1,-7.633138E-1,-6.419753E-1,-2.0750225E-1,-2.876713E-1,-2.0334011E-1,-1.4154583E-1,-2.2104144E-1,-4.6024066E-1,-3.6021775E-1,-1.9950907E-1,-3.4351707E-1,-4.2872885E-1,-4.4421557E-2,-3.148518E-1,-1.8413772E-1,2.1622212E-1,-5.885529E-2,-2.6611158E-1,-1.5811148E-1,-4.1653788E-1,-9.77202E-2,-2.527835E-1,-1.6061279E-1,-7.0528485E-2,3.2406285E-2,2.7159896E-2,1.6665179E-1,-4.037407E-1,-2.9661843E-1,-2.0021896E-1,-2.0510577E-4,-1.7363226E-1,-9.701654E-2,4.6001337E-2,-3.046495E-1,-7.5765565E-2,-1.864764E-2,-1.1221512E-1,-1.7690676E-1,-5.24396E-3,-9.0864144E-2,1.22664385E-1,-3.33133E-2,7.818626E-2,1.6336027E-1,2.3912896E-1,1.3747853E-1,3.2893863E-2,1.02357425E-1,6.1010193E-2,2.495625E-1,-1.89693E-1,-2.7159354E-1,-2.7826604E-1,-1.2793626E-1,-1.2847242E-2,-1.5170828E-1,-9.554666E-2,4.1599225E-2,-2.2590032E-1,6.3672535E-2,-1.6528198E-1,-4.869962E-1,-2.1309172E-1,-4.4283126E-2,-7.1792275E-2,5.7058085E-2],"categories":[],"categories_nodes":[],"categories_segments":[],"categories_sizes":[],"default_left":[0,0,0,0,0,0,0,0,0,0,0,0,0,0,0,0,0,0,0,0,0,0,0,0,0,0,0,0,0,0,0,0,0,0,0,0,0,0,0,0,0,0,0,0,0,0,0,0,0,0,0,0,0,0,0,0,0,0,0,0,0,0,0,0,0,0,0,0,0,0,0,0,0,0,0,0,0,0,0,0,0,0,0,0,0,0,0,0,0,0,0,0,0,0,0,0,0,0,0,0,0,0,0,0,0,0,0,0,0,0,0,0,0,0,0,0,0,0,0,0,0,0,0,0,0,0,0],"id":0,"left_children":[1,3,5,7,9,11,13,15,17,19,21,23,25,27,29,31,33,35,37,39,41,43,45,47,49,51,53,55,57,59,61,63,65,67,69,71,73,75,77,79,81,83,85,87,89,91,93,95,97,99,101,103,105,107,109,111,113,115,117,119,121,123,125,-1,-1,-1,-1,-1,-1,-1,-1,-1,-1,-1,-1,-1,-1,-1,-1,-1,-1,-1,-1,-1,-1,-1,-1,-1,-1,-1,-1,-1,-1,-1,-1,-1,-1,-1,-1,-1,-1,-1,-1,-1,-1,-1,-1,-1,-1,-1,-1,-1,-1,-1,-1,-1,-1,-1,-1,-1,-1,-1,-1,-1,-1,-1,-1],"loss_changes":[3.7981216E3,4.4370264E2,1.9007114E3,1.13453125E2,3.4277136E2,1.3224802E3,8.2864685E1,7.442847E1,3.6793564E1,2.9892493E2,1.2603314E2,1.849575E2,3.5861865E2,3.695038E1,3.6447647E1,4.281079E1,7.42514E1,4.9467773E0,5.5765385E1,4.8144287E1,7.519396E1,4.0033203E1,1.2875946E1,5.6506332E1,1.6413168E2,1.3817407E2,1.15765015E2,3.234796E1,2.2605843E1,5.0226128E1,5.7303055E1,2.882544E1,2.2765594E1,4.8480225E0,1.6000534E1,4.9044266E0,7.873413E0,4.056255E1,4.512581E0,2.7206238E1,1.7135406E1,3.329471E1,4.4305252E1,1.6297852E1,5.5323944E0,1.366394E1,3.2626839E0,2.0953384E1,8.379608E0,2.9817047E1,8.860698E1,7.3760864E1,1.2922241E2,7.0805725E1,1.2691864E1,8.268036E0,1.6473984E1,8.998253E0,2.2070152E1,2.3777832E1,1.17993355E1,1.1853317E1,2.7237373E1,0E0,0E0,0E0,0E0,0E0,0E0,0E0,0E0,0E0,0E0,0E0,0E0,0E0,0E0,0E0,0E0,0E0,0E0,0E0,0E0,0E0,0E0,0E0,0E0,0E0,0E0,0E0,0E0,0E0,0E0,0E0,0E0,0E0,0E0,0E0,0E0,0E0,0E0,0E0,0E0,0E0,0E0,0E0,0E0,0E0,0E0,0E0,0E0,0E0,0E0,0E0,0E0,0E0,0E0,0E0,0E0,0E0,0E0,0E0,0E0,0E0,0E0,0E0,0E0],"parents":[2147483647,0,0,1,1,2,2,3,3,4,4,5,5,6,6,7,7,8,8,9,9,10,10,11,11,12,12,13,13,14,14,15,15,16,16,17,17,18,18,19,19,20,20,21,21,22,22,23,23,24,24,25,25,26,26,27,27,28,28,29,29,30,30,31,31,32,32,33,33,34,34,35,35,36,36,37,37,38,38,39,39,40,40,41,41,42,42,43,43,44,44,45,45,46,46,47,47,48,48,49,49,50,50,51,51,52,52,53,53,54,54,55,55,56,56,57,57,58,58,59,59,60,60,61,61,62,62],"right_children":[2,4,6,8,10,12,14,16,18,20,22,24,26,28,30,32,34,36,38,40,42,44,46,48,50,52,54,56,58,60,62,64,66,68,70,72,74,76,78,80,82,84,86,88,90,92,94,96,98,100,102,104,106,108,110,112,114,116,118,120,122,124,126,-1,-1,-1,-1,-1,-1,-1,-1,-1,-1,-1,-1,-1,-1,-1,-1,-1,-1,-1,-1,-1,-1,-1,-1,-1,-1,-1,-1,-1,-1,-1,-1,-1,-1,-1,-1,-1,-1,-1,-1,-1,-1,-1,-1,-1,-1,-1,-1,-1,-1,-1,-1,-1,-1,-1,-1,-1,-1,-1,-1,-1,-1,-1,-1],"split_conditions":[-5.930911E-1,-1.2332247E0,1.1093988E0,6.6288537E-1,1.1093988E0,-5.166011E-1,1.6513988E0,1.1093988E0,-5.166011E-1,2.5398888E-2,1.6513988E0,5.846134E-1,6.275319E-2,5.7061594E-2,-9.720309E-1,2.5398888E-2,1.6513988E0,-1.5656698E0,1.1093988E0,4.7358915E-2,-9.113895E-1,7.061585E-1,1.9721247E0,6.7563784E-1,-1.058601E0,5.0327045E-1,5.0421727E-1,1.14238955E-1,-5.5734754E-1,2.033201E0,-7.853753E-1,-1.3994472E0,5.6739885E-1,1.0033472E-1,8.233267E-1,3.2543E4,-1.3711541E0,-1.6364028E0,1.4850748E0,-1.2555566E0,2.4219275E-1,6.340366E-1,1.0523435E0,-9.113895E-1,-6.461408E-1,-9.2553616E-1,-1.2555566E0,-1.058601E0,1.6777091E0,-1.6238812E-1,6.996914E-1,2.5398888E-2,5.6739885E-1,3.6180446E-1,-3.8796535E-1,6.275319E-2,-1.1401616E0,4.1792E4,7.782804E-1,-1.1690104E0,1.7764645E0,1.4850748E0,1.0667679E0,-2.876713E-1,-2.0334011E-1,-1.4154583E-1,-2.2104144E-1,-4.6024066E-1,-3.6021775E-1,-1.9950907E-1,-3.4351707E-1,-4.2872885E-1,-4.4421557E-2,-3.148518E-1,-1.8413772E-1,2.1622212E-1,-5.885529E-2,-2.6611158E-1,-1.5811148E-1,-4.1653788E-1,-9.77202E-2,-2.527835E-1,-1.6061279E-1,-7.0528485E-2,3.2406285E-2,2.7159896E-2,1.6665179E-1,-4.037407E-1,-2.9661843E-1,-2.0021896E-1,-2.0510577E-4,-1.7363226E-1,-9.701654E-2,4.6001337E-2,-3.046495E-1,-7.5765565E-2,-1.864764E-2,-1.1221512E-1,-1.7690676E-1,-5.24396E-3,-9.0864144E-2,1.22664385E-1,-3.33133E-2,7.818626E-2,1.6336027E-1,2.3912896E-1,1.3747853E-1,3.2893863E-2,1.02357425E-1,6.1010193E-2,2.495625E-1,-1.89693E-1,-2.7159354E-1,-2.7826604E-1,-1.2793626E-1,-1.2847242E-2,-1.5170828E-1,-9.554666E-2,4.1599225E-2,-2.2590032E-1,6.3672535E-2,-1.6528198E-1,-4.869962E-1,-2.1309172E-1,-4.4283126E-2,-7.1792275E-2,5.7058085E-2],"split_indices":[3,3,2,4,2,2,2,2,2,2,2,3,1,4,1,2,2,3,2,1,3,4,1,1,2,3,4,3,1,4,1,3,2,4,1,0,3,3,4,4,1,4,4,3,3,3,4,2,1,1,1,2,2,3,3,1,4,0,4,4,3,4,4,0,0,0,0,0,0,0,0,0,0,0,0,0,0,0,0,0,0,0,0,0,0,0,0,0,0,0,0,0,0,0,0,0,0,0,0,0,0,0,0,0,0,0,0,0,0,0,0,0,0,0,0,0,0,0,0,0,0,0,0,0,0,0,0],"split_type":[0,0,0,0,0,0,0,0,0,0,0,0,0,0,0,0,0,0,0,0,0,0,0,0,0,0,0,0,0,0,0,0,0,0,0,0,0,0,0,0,0,0,0,0,0,0,0,0,0,0,0,0,0,0,0,0,0,0,0,0,0,0,0,0,0,0,0,0,0,0,0,0,0,0,0,0,0,0,0,0,0,0,0,0,0,0,0,0,0,0,0,0,0,0,0,0,0,0,0,0,0,0,0,0,0,0,0,0,0,0,0,0,0,0,0,0,0,0,0,0,0,0,0,0,0,0,0],"sum_hessian":[4.0166746E4,1.2098999E4,2.8067746E4,4.3842495E3,7.714749E3,2.2657248E4,5.4104995E3,3.5524995E3,8.317499E2,6.0892495E3,1.6254998E3,6.510499E3,1.6146748E4,2.4064998E3,3.0039998E3,2.8572498E3,6.9524994E2,2.0474997E2,6.2699994E2,3.0657498E3,3.0234998E3,7.2499994E2,9.004999E2,3.0702498E3,3.4402495E3,1.0249999E4,5.8967495E3,1.4502499E3,9.562499E2,5.0224994E2,2.5017498E3,1.5354999E3,1.3217499E3,3.1874997E2,3.7649997E2,2.5249996E1,1.7949998E2,4.5949994E2,1.6749998E2,1.9424998E3,1.1232499E3,1.5099999E3,1.5134999E3,5.5274994E2,1.7224998E2,8.484999E2,5.1999992E1,2.3189998E3,7.5124994E2,1.4859999E3,1.9542498E3,4.6687495E3,5.5812495E3,5.4602495E3,4.3649994E2,4.7849994E2,9.717499E2,4.9899994E2,4.5724994E2,4.3374994E2,6.849999E1,3.5299997E2,2.1487498E3,8.954999E2,6.3999994E2,7.0799994E2,6.1374994E2,2.3474997E2,8.399999E1,2.8049997E2,9.5999985E1,2.4999998E0,2.2749998E1,8.099999E1,9.8499985E1,5.3749992E1,4.0574994E2,1.06749985E2,6.0749992E1,2.3499998E1,1.9189998E3,2.3299997E2,8.902499E2,1.1339999E3,3.7599997E2,1.2699999E3,2.4349997E2,2.8299997E2,2.6974997E2,1.5874998E2,1.3499998E1,4.2024994E2,4.2824994E2,2.2499998E0,4.9749992E1,1.0989999E3,1.2199999E3,4.2624994E2,3.2499997E2,8.349999E2,6.5099994E2,1.5382498E3,4.1599994E2,1.2539999E3,3.4147495E3,4.0092495E3,1.5719998E3,2.2412498E3,3.2189995E3,3.5749996E1,4.0074994E2,2.1749997E2,2.6099997E2,7.074999E1,9.009999E2,4.6499996E1,4.5249994E2,2.9324997E2,1.6399998E2,2.6249996E1,4.0749994E2,5.6249992E1,1.2249998E1,3.0974997E2,4.3249996E1,1.9899998E3,1.5874998E2],"tree_param":{"num_deleted":"0","num_feature":"5","num_nodes":"127","size_leaf_vector":"1"}},{"base_weights":[-2.7369324E-4,-3.4785405E-1,1.3691464E-1,-2.8060892E-1,-6.1196023E-1,2.2685032E-1,-2.3793569E-1,-4.8143294E-1,-1.7177053E-1,-8.6060923E-1,-4.1331878E-1,-4.131818E-2,3.3527106E-1,-3.3783126E-1,-1.5813656E-1,-5.658002E-1,-3.0486786E-1,-3.1224737E-1,-2.7372962E-2,-9.430327E-1,-5.2560186E-1,-6.290312E-1,-3.5344422E-1,-1.7261742E-1,7.226691E-2,3.9705724E-1,1.2863098E-1,-2.9041785E-1,-5.872225E-1,8.076847E-3,-1.9378124E-1,-6.570168E-1,-4.6074408E-1,-8.351445E-1,-2.0820068E-1,-5.3352416E-1,-2.6680884E-1,-1.0384649E-1,1.5562075E-1,-1.0245199E0,-7.152622E-1,-6.684274E-1,-3.0957222E-1,-7.3708737E-1,-3.5608062E-1,5.0414186E-2,-3.8320103E-1,-1.18952714E-1,-3.353964E-1,-9.552445E-2,2.0116827E-1,2.5617194E-1,4.6090996E-1,1.8283736E-2,1.9494501E-1,-1.0327309E0,-2.5986183E-1,-1.0255154E0,-4.0481243E-1,3.470536E-1,-1.6800131E-1,-4.9968022E-1,-1.4821286E-1,-2.8450692E-1,-1.8585409E-1,-1.7621599E-1,-1.19178444E-1,-8.2682446E-2,-2.661419E-1,6.776642E-2,-7.887381E-2,2.2741382E-1,-1.7035976E-1,-9.6431375E-2,-4.312211E-2,-6.888248E-2,1.1442171E-3,-7.984158E-2,5.9219357E-2,-3.3332792E-1,-2.5665873E-1,-3.5273978E-1,-1.8735719E-1,-2.1365677E-1,-2.6818657E-2,-1.1121673E-1,3.2610512E-1,-2.6563734E-1,-1.6045885E-1,-6.226972E-3,-2.0072182E-1,-7.909333E-2,9.934935E-2,-1.6287182E-1,-9.4293945E-2,-1.9996335E-1,-3.1765856E-2,-1.4070424E-1,-8.128911E-2,-2.191538E-2,-2.4980961E-1,9.498899E-2,-4.9521336E-3,5.249373E-2,1.4688231E-1,1.443841E-1,-3.2119777E-2,-7.512261E-2,3.7441112E-2,7.621196E-2,1.231768E-2,-3.4409887E-1,-3.3413615E-2,-1.315822E-1,-6.071913E-2,-3.9851436E-1,-2.3104195E-1,7.905583E-2,-1.459188E-1,-1.4192173E-1,1.5916076E-1,-3.660017E-2,-3.3466738E-1,-1.8098871E-1,-7.914639E-2,-8.0005035E-2,-2.2975354E-2],"categories":[],"categories_nodes":[],"categories_segments":[],"categories_sizes":[],"default_left":[0,0,0,0,0,0,0,0,0,0,0,0,0,0,0,0,0,0,0,0,0,0,0,0,0,0,0,0,0,0,0,0,0,0,0,0,0,0,0,0,0,0,0,0,0,0,0,0,0,0,0,0,0,0,0,0,0,0,0,0,0,0,0,0,0,0,0,0,0,0,0,0,0,0,0,0,0,0,0,0,0,0,0,0,0,0,0,0,0,0,0,0,0,0,0,0,0,0,0,0,0,0,0,0,0,0,0,0,0,0,0,0,0,0,0,0,0,0,0,0,0,0,0,0,0,0,0],"id":1,"left_children":[1,3,5,7,9,11,13,15,17,19,21,23,25,27,29,31,33,35,37,39,41,43,45,47,49,51,53,55,57,59,61,63,65,67,69,71,73,75,77,79,81,83,85,87,89,91,93,95,97,99,101,103,105,107,109,111,113,115,117,119,121,123,125,-1,-1,-1,-1,-1,-1,-1,-1,-1,-1,-1,-1,-1,-1,-1,-1,-1,-1,-1,-1,-1,-1,-1,-1,-1,-1,-1,-1,-1,-1,-1,-1,-1,-1,-1,-1,-1,-1,-1,-1,-1,-1,-1,-1,-1,-1,-1,-1,-1,-1,-1,-1,-1,-1,-1,-1,-1,-1,-1,-1,-1,-1,-1,-1],"loss_changes":[1.9037507E3,2.0048792E2,9.651002E2,1.9679523E2,1.1285516E2,6.7127734E2,4.410562E1,4.6978943E1,1.1851552E2,2.7585999E1,1.6259369E1,9.915479E1,2.0985327E2,2.8907562E1,1.825785E1,2.0211365E1,5.2399193E1,2.963556E1,4.0353363E1,1.4392578E1,6.058666E0,7.876854E0,1.2050484E1,2.6898048E1,7.71255E1,1.13732056E2,2.7698906E1,4.6644592E1,3.0913635E1,3.2592567E1,3.52947E1,1.1906311E1,7.791992E0,4.346527E0,2.0693378E1,2.276564E1,1.6486603E1,2.7533361E1,1.5028488E1,7.796509E0,8.377197E0,3.0121384E0,7.4643917E0,5.430168E0,8.403427E0,6.2228885E0,1.0088989E1,1.653439E1,6.4507065E0,2.5609894E1,5.068582E1,7.476614E1,1.00796265E2,4.0735455E1,2.1492691E1,8.445587E0,2.0329483E1,7.8333817E0,1.5305359E1,2.834099E1,1.5530222E1,7.8701096E0,1.873151E1,0E0,0E0,0E0,0E0,0E0,0E0,0E0,0E0,0E0,0E0,0E0,0E0,0E0,0E0,0E0,0E0,0E0,0E0,0E0,0E0,0E0,0E0,0E0,0E0,0E0,0E0,0E0,0E0,0E0,0E0,0E0,0E0,0E0,0E0,0E0,0E0,0E0,0E0,0E0,0E0,0E0,0E0,0E0,0E0,0E0,0E0,0E0,0E0,0E0,0E0,0E0,0E0,0E0,0E0,0E0,0E0,0E0,0E0,0E0,0E0,0E0,0E0,0E0,0E0],"parents":[2147483647,0,0,1,1,2,2,3,3,4,4,5,5,6,6,7,7,8,8,9,9,10,10,11,11,12,12,13,13,14,14,15,15,16,16,17,17,18,18,19,19,20,20,21,21,22,22,23,23,24,24,25,25,26,26,27,27,28,28,29,29,30,30,31,31,32,32,33,33,34,34,35,35,36,36,37,37,38,38,39,39,40,40,41,41,42,42,43,43,44,44,45,45,46,46,47,47,48,48,49,49,50,50,51,51,52,52,53,53,54,54,55,55,56,56,57,57,58,58,59,59,60,60,61,61,62,62],"right_children":[2,4,6,8,10,12,14,16,18,20,22,24,26,28,30,32,34,36,38,40,42,44,46,48,50,52,54,56,58,60,62,64,66,68,70,72,74,76,78,80,82,84,86,88,90,92,94,96,98,100,102,104,106,108,110,112,114,116,118,120,122,124,126,-1,-1,-1,-1,-1,-1,-1,-1,-1,-1,-1,-1,-1,-1,-1,-1,-1,-1,-1,-1,-1,-1,-1,-1,-1,-1,-1,-1,-1,-1,-1,-1,-1,-1,-1,-1,-1,-1,-1,-1,-1,-1,-1,-1,-1,-1,-1,-1,-1,-1,-1,-1,-1,-1,-1,-1,-1,-1,-1,-1,-1,-1,-1,-1],"split_conditions":[-6.461408E-1,1.1093988E0,1.1093988E0,-1.2650546E0,1.6513988E0,-5.166011E-1,1.6513988E0,2.5900286E-1,2.5398888E-2,8.0712914E-1,-1.3711541E0,5.38637E-1,6.7563784E-1,1.1648872E0,-9.609662E-1,2.5398888E-2,-1.058601E0,-8.08401E-1,4.3209538E-1,-9.113895E-1,-9.8212254E-1,3.455491E-1,-1.300421E0,6.7563784E-1,-1.058601E0,1.14238955E-1,2.0265521E-1,-1.0968884E0,1.6555798E0,-4.189428E-1,-7.853753E-1,-9.526447E-1,-1.4949368E0,-1.5656698E0,-1.5656698E0,-1.1735997E0,5.6191474E-1,-9.644393E-1,-1.1351141E0,1.3788465E-2,-8.9494723E-1,3.1583023E0,2.8356487E-1,2.31224E5,1.98428E5,-5.4532075E-1,-1.1059053E0,-1.1690104E0,1.1254394E0,2.7544198E0,9.59471E-2,6.196123E-1,1.9002472E0,2.5398888E-2,5.6739885E-1,4.1008657E-1,-1.1564329E-1,3.4412122E-1,1.8316519E0,-1.1113129E0,1.9497603E0,6.340366E-1,2.0265521E-1,-2.8450692E-1,-1.8585409E-1,-1.7621599E-1,-1.19178444E-1,-8.2682446E-2,-2.661419E-1,6.776642E-2,-7.887381E-2,2.2741382E-1,-1.7035976E-1,-9.6431375E-2,-4.312211E-2,-6.888248E-2,1.1442171E-3,-7.984158E-2,5.9219357E-2,-3.3332792E-1,-2.5665873E-1,-3.5273978E-1,-1.8735719E-1,-2.1365677E-1,-2.6818657E-2,-1.1121673E-1,3.2610512E-1,-2.6563734E-1,-1.6045885E-1,-6.226972E-3,-2.0072182E-1,-7.909333E-2,9.934935E-2,-1.6287182E-1,-9.4293945E-2,-1.9996335E-1,-3.1765856E-2,-1.4070424E-1,-8.128911E-2,-2.191538E-2,-2.4980961E-1,9.498899E-2,-4.9521336E-3,5.249373E-2,1.4688231E-1,1.443841E-1,-3.2119777E-2,-7.512261E-2,3.7441112E-2,7.621196E-2,1.231768E-2,-3.4409887E-1,-3.3413615E-2,-1.315822E-1,-6.071913E-2,-3.9851436E-1,-2.3104195E-1,7.905583E-2,-1.459188E-1,-1.4192173E-1,1.5916076E-1,-3.660017E-2,-3.3466738E-1,-1.8098871E-1,-7.914639E-2,-8.0005035E-2,-2.2975354E-2],"split_indices":[3,2,2,3,2,2,2,4,2,4,3,3,1,1,1,2,2,4,4,3,3,4,3,1,2,3,3,4,1,4,1,4,3,3,3,1,4,3,1,4,4,4,1,0,0,1,3,4,1,4,1,4,3,2,2,1,3,3,1,4,3,4,3,0,0,0,0,0,0,0,0,0,0,0,0,0,0,0,0,0,0,0,0,0,0,0,0,0,0,0,0,0,0,0,0,0,0,0,0,0,0,0,0,0,0,0,0,0,0,0,0,0,0,0,0,0,0,0,0,0,0,0,0,0,0,0,0],"split_type":[0,0,0,0,0,0,0,0,0,0,0,0,0,0,0,0,0,0,0,0,0,0,0,0,0,0,0,0,0,0,0,0,0,0,0,0,0,0,0,0,0,0,0,0,0,0,0,0,0,0,0,0,0,0,0,0,0,0,0,0,0,0,0,0,0,0,0,0,0,0,0,0,0,0,0,0,0,0,0,0,0,0,0,0,0,0,0,0,0,0,0,0,0,0,0,0,0,0,0,0,0,0,0,0,0,0,0,0,0,0,0,0,0,0,0,0,0,0,0,0,0,0,0,0,0,0,0],"sum_hessian":[3.9922332E4,1.1297486E4,2.8624846E4,9.006395E3,2.2910916E3,2.3086283E4,5.5385625E3,3.164313E3,5.842082E3,1.01599286E3,1.2750989E3,6.6467627E3,1.643952E4,2.458139E3,3.0804238E3,2.139704E3,1.0246089E3,2.960654E3,2.881428E3,8.139242E2,2.0206865E2,2.7496518E2,1.00013367E3,3.0827373E3,3.5640254E3,1.2654772E4,3.784747E3,2.0672793E3,3.9085947E2,5.4408673E2,2.536337E3,1.1424767E3,9.972274E2,1.5680443E2,8.6780444E2,5.0255713E2,2.458097E3,2.0324813E3,8.489465E2,5.968846E2,2.1703958E2,1.20383995E2,8.168466E1,1.9576495E2,7.920022E1,6.858645E1,9.3154724E2,2.31971E3,7.6302734E2,1.5485419E3,2.0154835E3,3.948273E3,8.7065E3,1.4211741E3,2.363573E3,8.0434875E1,1.9868445E3,1.1350615E2,2.7735333E2,1.856711E2,3.5841562E2,3.2754865E2,2.2087883E3,1.2752507E2,1.01495154E3,3.302177E2,6.670097E2,1.3867908E1,1.4293651E2,9.678411E1,7.710203E2,1.2470653E1,4.9008646E2,1.7012948E3,7.568021E2,9.3691174E2,1.0955696E3,7.602888E1,7.729176E2,3.910016E2,2.0588301E2,3.3755783E1,1.832838E2,1.11711174E2,8.672816E0,7.896184E1,2.7228222E0,1.1096921E2,8.4795746E1,3.875083E1,4.0449387E1,3.240162E1,3.618483E1,2.7865387E2,6.528934E2,5.289692E1,2.2668132E3,2.4619664E2,5.168307E2,1.5037969E3,4.474503E1,1.3166418E3,6.9884174E2,2.9306821E3,1.01759076E3,8.405201E3,3.012983E2,4.0307712E2,1.0180969E3,1.7072928E3,6.562801E2,7.134218E1,9.09269E0,4.8174194E2,1.5051027E3,5.0002914E1,6.3503235E1,2.9930758E1,2.4742258E2,3.3656326E1,1.5201477E2,3.4289783E2,1.5517806E1,2.2649081E2,1.0105783E2,8.312347E2,1.3775537E3],"tree_param":{"num_deleted":"0","num_feature":"5","num_nodes":"127","size_leaf_vector":"1"}},{"base_weights":[-5.6949235E-4,-3.1250456E-1,7.998227E-2,-2.6388934E-1,-5.136849E-1,1.434273E-1,-1.814792E-1,-3.548398E-1,-1.6473466E-1,-7.2762865E-1,-3.487581E-1,-4.9752664E-2,2.2185643E-1,-2.7104408E-1,-1.2290145E-1,-5.000545E-1,-2.937847E-1,-2.2082761E-1,2.1311108E-2,-8.7332445E-1,-5.68453E-1,-1.1645059E-1,-4.0440673E-1,-1.63333E-1,4.3375466E-2,1.7757961E-1,3.9747575E-1,-3.6947078E-1,-1.17800914E-1,-1.0387409E-1,-3.7800822E-1,-6.925189E-1,-4.1555503E-1,-2.4763255E-1,-4.438494E-1,-2.949652E-1,-8.9951456E-2,2.0581286E-1,-6.474571E-2,-6.405649E-2,-8.831096E-1,-5.4921037E-1,-1.234831E0,-3.9597407E-1,5.7886727E-2,-7.6471716E-1,-3.6123055E-1,-1.4136244E-1,-3.5411263E-1,1.2855387E-1,-1.0614283E-1,3.216113E-2,2.3635706E-1,1.18027E-1,4.6865904E-1,-4.782828E-1,-2.8667447E-1,-2.3005153E-1,3.0918278E-2,-6.619429E-2,-2.0403852E-1,-2.3039694E-1,-7.3458064E-1,-1.2184646E-1,-2.1829744E-1,-1.816973E-1,-1.0200134E-1,-3.5032943E-2,-9.33705E-2,-2.3518795E-1,-1.1298505E-1,-6.284365E-2,-1.1818236E-1,4.6116504E-4,-5.4746415E-2,-1.818102E-2,1.0180556E-1,1.3555916E-1,-2.8206173E-2,2.04341E-1,-1.2421418E-1,-3.3234465E-1,-2.509979E-1,-1.3576736E-1,-1.9850086E-1,-1.0602872E-1,-3.9702436E-1,-4.728177E-2,-2.3058684E-1,7.791005E-2,-6.97407E-2,1.06412314E-1,-2.601031E-1,-9.469331E-2,-2.0405935E-1,-6.264149E-2,-2.388393E-2,-7.523063E-2,-1.8979569E-1,1.0175764E-1,1.3791708E-2,-5.5213336E-2,4.3603376E-2,-3.936881E-2,2.8796421E-2,2.4818249E-1,6.7084916E-2,1.8286753E-1,1.0607933E-2,1.0306564E-1,1.4804162E-1,-1.6128977E-1,-7.455284E-2,-3.9801788E-1,-8.192747E-2,-5.5020386E-3,-8.1617646E-2,-2.9994661E-2,9.1979556E-2,-2.4882622E-2,1.5136178E-1,9.170034E-2,-7.1886905E-2,-2.3246656E-1,-5.0888103E-2,-2.71633E-1,-3.7072185E-2],"categories":[],"categories_nodes":[],"categories_segments":[],"categories_sizes":[],"default_left":[0,0,0,0,0,0,0,0,0,0,0,0,0,0,0,0,0,0,0,0,0,0,0,0,0,0,0,0,0,0,0,0,0,0,0,0,0,0,0,0,0,0,0,0,0,0,0,0,0,0,0,0,0,0,0,0,0,0,0,0,0,0,0,0,0,0,0,0,0,0,0,0,0,0,0,0,0,0,0,0,0,0,0,0,0,0,0,0,0,0,0,0,0,0,0,0,0,0,0,0,0,0,0,0,0,0,0,0,0,0,0,0,0,0,0,0,0,0,0,0,0,0,0,0,0,0,0],"id":2,"left_children":[1,3,5,7,9,11,13,15,17,19,21,23,25,27,29,31,33,35,37,39,41,43,45,47,49,51,53,55,57,59,61,63,65,67,69,71,73,75,77,79,81,83,85,87,89,91,93,95,97,99,101,103,105,107,109,111,113,115,117,119,121,123,125,-1,-1,-1,-1,-1,-1,-1,-1,-1,-1,-1,-1,-1,-1,-1,-1,-1,-1,-1,-1,-1,-1,-1,-1,-1,-1,-1,-1,-1,-1,-1,-1,-1,-1,-1,-1,-1,-1,-1,-1,-1,-1,-1,-1,-1,-1,-1,-1,-1,-1,-1,-1,-1,-1,-1,-1,-1,-1,-1,-1,-1,-1,-1,-1],"loss_changes":[9.9220355E2,7.91272E1,5.2062823E2,5.8821503E1,5.536212E1,3.8265863E2,3.212117E1,3.0038025E1,3.262197E1,1.539444E1,1.1483986E1,7.71552E1,1.3960828E2,3.6496536E1,1.7955395E1,1.6077911E1,1.6506714E1,2.3275291E1,1.1523874E1,2.7616882E0,3.5575027E0,8.491556E0,1.0912117E1,1.3724091E1,5.106363E1,1.22629456E2,7.187689E1,1.31483E1,1.5848203E1,1.3012093E1,1.3354153E1,2.7787323E0,9.873444E0,1.525399E1,1.2579971E1,1.2885422E1,7.36483E0,8.232654E0,7.530634E0,1.672143E0,2.7425842E0,3.2098007E0,1.9356823E-1,5.819722E0,6.3831315E0,9.017578E0,9.151268E0,1.2262428E1,9.590878E0,4.441235E1,2.8538284E1,4.309573E1,7.674164E1,2.9862862E1,8.776062E0,8.535629E0,1.1503288E1,4.8052883E0,1.4791514E1,2.4027264E1,1.7175571E1,5.9292994E0,7.693535E0,0E0,0E0,0E0,0E0,0E0,0E0,0E0,0E0,0E0,0E0,0E0,0E0,0E0,0E0,0E0,0E0,0E0,0E0,0E0,0E0,0E0,0E0,0E0,0E0,0E0,0E0,0E0,0E0,0E0,0E0,0E0,0E0,0E0,0E0,0E0,0E0,0E0,0E0,0E0,0E0,0E0,0E0,0E0,0E0,0E0,0E0,0E0,0E0,0E0,0E0,0E0,0E0,0E0,0E0,0E0,0E0,0E0,0E0,0E0,0E0,0E0,0E0,0E0,0E0],"parents":[2147483647,0,0,1,1,2,2,3,3,4,4,5,5,6,6,7,7,8,8,9,9,10,10,11,11,12,12,13,13,14,14,15,15,16,16,17,17,18,18,19,19,20,20,21,21,22,22,23,23,24,24,25,25,26,26,27,27,28,28,29,29,30,30,31,31,32,32,33,33,34,34,35,35,36,36,37,37,38,38,39,39,40,40,41,41,42,42,43,43,44,44,45,45,46,46,47,47,48,48,49,49,50,50,51,51,52,52,53,53,54,54,55,55,56,56,57,57,58,58,59,59,60,60,61,61,62,62],"right_children":[2,4,6,8,10,12,14,16,18,20,22,24,26,28,30,32,34,36,38,40,42,44,46,48,50,52,54,56,58,60,62,64,66,68,70,72,74,76,78,80,82,84,86,88,90,92,94,96,98,100,102,104,106,108,110,112,114,116,118,120,122,124,126,-1,-1,-1,-1,-1,-1,-1,-1,-1,-1,-1,-1,-1,-1,-1,-1,-1,-1,-1,-1,-1,-1,-1,-1,-1,-1,-1,-1,-1,-1,-1,-1,-1,-1,-1,-1,-1,-1,-1,-1,-1,-1,-1,-1,-1,-1,-1,-1,-1,-1,-1,-1,-1,-1,-1,-1,-1,-1,-1,-1,-1,-1,-1,-1],"split_conditions":[-9.113895E-1,1.1093988E0,1.1093988E0,2.5398888E-2,1.6513988E0,-5.166011E-1,9.655571E-2,-1.3994472E0,6.340366E-1,1.3788465E-2,-9.4990164E-1,3.6180446E-1,6.196123E-1,4.2637218E-2,1.7764645E0,-1.058601E0,-1.0174891E0,-1.1589551E0,-9.354695E-1,3.178E3,1.9870379E0,-1.0966283E0,-8.1616384E-1,1.6777091E0,8.632568E-2,-1.3332655E-1,-1.033608E0,1.6513988E0,-4.5776582E-1,5.3564614E-1,9.94646E-1,-1.5656698E0,-5.920353E-1,-1.058601E0,-8.372497E-1,5.6739885E-1,5.6739885E-1,-1.1192386E0,-1.6364028E0,-9.2379594E-1,-9.2379594E-1,2.21879E5,5.6094E4,2.51587E5,-1.0085922E0,4.0234E4,1.8585919E0,-1.058601E0,4.3505955E-2,-5.7761097E-1,-8.7182164E-2,2.5398888E-2,-1.1529137E0,9.3694854E-1,7.782804E-1,3.17056E5,-1.3421029E0,6.3888E4,8.0712914E-1,3.345584E-1,-1.1113129E0,-1.1401616E0,-4.6498188E-1,-1.2184646E-1,-2.1829744E-1,-1.816973E-1,-1.0200134E-1,-3.5032943E-2,-9.33705E-2,-2.3518795E-1,-1.1298505E-1,-6.284365E-2,-1.1818236E-1,4.6116504E-4,-5.4746415E-2,-1.818102E-2,1.0180556E-1,1.3555916E-1,-2.8206173E-2,2.04341E-1,-1.2421418E-1,-3.3234465E-1,-2.509979E-1,-1.3576736E-1,-1.9850086E-1,-1.0602872E-1,-3.9702436E-1,-4.728177E-2,-2.3058684E-1,7.791005E-2,-6.97407E-2,1.06412314E-1,-2.601031E-1,-9.469331E-2,-2.0405935E-1,-6.264149E-2,-2.388393E-2,-7.523063E-2,-1.8979569E-1,1.0175764E-1,1.3791708E-2,-5.5213336E-2,4.3603376E-2,-3.936881E-2,2.8796421E-2,2.4818249E-1,6.7084916E-2,1.8286753E-1,1.0607933E-2,1.0306564E-1,1.4804162E-1,-1.6128977E-1,-7.455284E-2,-3.9801788E-1,-8.192747E-2,-5.5020386E-3,-8.1617646E-2,-2.9994661E-2,9.1979556E-2,-2.4882622E-2,1.5136178E-1,9.170034E-2,-7.1886905E-2,-2.3246656E-1,-5.0888103E-2,-2.71633E-1,-3.7072185E-2],"split_indices":[3,2,2,2,2,2,3,3,4,4,1,3,4,4,3,2,3,3,1,0,1,1,1,1,1,3,1,2,1,1,4,3,4,2,4,2,2,1,3,4,4,0,0,0,1,0,1,2,3,4,4,2,1,4,4,0,4,0,4,1,4,4,1,0,0,0,0,0,0,0,0,0,0,0,0,0,0,0,0,0,0,0,0,0,0,0,0,0,0,0,0,0,0,0,0,0,0,0,0,0,0,0,0,0,0,0,0,0,0,0,0,0,0,0,0,0,0,0,0,0,0,0,0,0,0,0,0],"split_type":[0,0,0,0,0,0,0,0,0,0,0,0,0,0,0,0,0,0,0,0,0,0,0,0,0,0,0,0,0,0,0,0,0,0,0,0,0,0,0,0,0,0,0,0,0,0,0,0,0,0,0,0,0,0,0,0,0,0,0,0,0,0,0,0,0,0,0,0,0,0,0,0,0,0,0,0,0,0,0,0,0,0,0,0,0,0,0,0,0,0,0,0,0,0,0,0,0,0,0,0,0,0,0,0,0,0,0,0,0,0,0,0,0,0,0,0,0,0,0,0,0,0,0,0,0,0,0],"sum_hessian":[3.948567E4,8.103224E3,3.138245E4,6.5280366E3,1.5751876E3,2.5254709E4,6.1277393E3,3.4035361E3,3.1245002E3,6.842125E2,8.9097504E2,7.292589E3,1.7962121E4,2.4215635E3,3.7061758E3,1.0053059E3,2.3982302E3,2.4005466E3,7.239537E2,3.5488998E2,3.2932257E2,1.7278198E2,7.1819305E2,3.2851821E3,4.007407E3,1.4346994E4,3.615127E3,1.4736442E3,9.4791943E2,3.4502437E3,2.5593222E2,3.045155E2,7.0079047E2,1.8361693E3,5.620609E2,1.5316545E3,8.6889215E2,2.2982599E2,4.9412766E2,4.3299975E0,3.5055997E2,3.2185275E2,7.4698086E0,6.58808E1,1.06901184E2,7.506391E1,6.4312915E2,2.9474849E3,3.3769724E2,2.5530894E3,1.4543177E3,4.130203E3,1.021679E4,7.3446173E2,2.8806653E3,6.347156E2,8.389285E2,5.398804E2,4.0803903E2,2.5083245E3,9.419192E2,1.8216641E2,7.37658E1,3.4655125E1,2.6986038E2,1.9730621E2,5.0348422E2,6.014919E2,1.2346774E3,9.100947E1,4.7105145E2,8.2350385E2,7.0815063E2,4.3741452E2,4.3147766E2,7.6917786E1,1.5290822E2,2.5725101E1,4.6840256E2,1.0813831E0,3.2486145E0,5.6137993E1,2.9442197E2,1.7579265E2,1.460601E2,1.1378667E0,6.331942E0,4.104739E1,2.4833408E1,6.3128754E1,4.377243E1,6.0784154E0,6.89855E1,5.644488E2,7.8680374E1,1.4076602E3,1.5398247E3,2.4769693E2,9.00003E1,7.18169E2,1.8349203E3,1.1105714E3,3.437463E2,1.1599058E3,2.9702976E3,2.1428401E2,1.0002507E4,1.04822655E2,6.296391E2,4.7923135E2,2.4014338E3,5.0335965E2,1.3135593E2,9.568728E0,8.293598E2,8.962389E1,4.502565E2,2.7710117E2,1.3093785E2,2.437648E3,7.06764E1,6.0972286E1,8.809469E2,1.7110163E1,1.6505624E2,5.7269104E1,1.6496693E1],"tree_param":{"num_deleted":"0","num_feature":"5","num_nodes":"127","size_leaf_vector":"1"}},{"base_weights":[-6.993974E-4,-1.5403628E-1,8.579282E-2,-2.853227E-1,-1.0359792E-1,1.3100423E-1,-1.0357814E-1,-3.4068602E-1,-1.7446193E-1,-6.2041488E-2,-2.6852775E-1,-2.4514154E-3,1.8641365E-1,-9.2438474E-2,-3.9643443E-1,-3.0726174E-1,-4.9192548E-1,-5.08785E-1,-1.2828723E-1,-1.5298508E-1,2.6901878E-2,-4.1102743E-1,-1.6158141E-1,3.934764E-2,-1.4513671E-1,2.2850272E-1,3.7785437E-2,-1.5724361E-1,-4.2145867E-2,-6.635973E-1,-2.2485906E-1,-2.9024276E-1,-5.269541E-1,-7.1459895E-1,-3.3351845E-1,2.1922345E-1,-5.3074324E-1,-7.571187E-2,-3.12589E-1,-4.106024E-1,-1.2940107E-1,-8.263163E-1,3.3587176E-2,-7.736219E-1,-3.657828E-1,-4.3962663E-1,-1.1907983E-1,-5.778802E-1,5.2543603E-2,-3.6508402E-1,-4.546046E-2,2.8258976E-1,1.0886743E-1,-3.5806917E-2,1.3012114E-1,-1.0384837E-1,-2.9192108E-1,1.4293538E-1,-7.569666E-2,-1.2165588E0,-5.109102E-1,-1.0022917E-1,-4.6954623E-1,-1.1537923E-1,-7.427245E-2,-1.797223E-1,1.04671605E-2,-2.2491212E-1,-1.2378808E-1,-1.350728E-1,-3.798017E-2,-2.2993629E-1,-1.2686019E-1,5.076279E-2,-3.158385E-2,-1.3957997E-1,-5.8462963E-2,1.8817551E-1,-1.3499258E-1,-4.0057596E-2,3.1709993E-1,-3.683024E-1,-1.285689E-1,-2.2250835E-2,2.4823101E-2,6.421747E-2,-2.5140166E-1,-1.2781385E-1,-5.5330727E-2,-1.100466E-1,-2.996206E-1,-2.4470791E-2,-9.708198E-2,-2.7972018E-2,-3.0831176E-1,-1.4593764E-2,4.0262997E-2,-1.2398124E-1,2.428489E-2,5.2342694E-2,-4.427595E-2,4.9918644E-2,1.17318265E-1,4.879276E-2,-2.7982593E-1,-2.947911E-2,6.762682E-2,4.4924695E-2,-1.7727187E-1,-2.7278113E-1,-2.4216475E-2,1.7675474E-1,-9.375887E-2,9.301881E-2,-8.607105E-3,-2.8337127E-2,9.413278E-2,-4.5227423E-1,-2.844698E-2,-5.5737575E-3,-2.1040718E-1,-9.1131486E-2,9.87538E-2,1.3689463E-2,-2.2111188E-1],"categories":[],"categories_nodes":[],"categories_segments":[],"categories_sizes":[],"default_left":[0,0,0,0,0,0,0,0,0,0,0,0,0,0,0,0,0,0,0,0,0,0,0,0,0,0,0,0,0,0,0,0,0,0,0,0,0,0,0,0,0,0,0,0,0,0,0,0,0,0,0,0,0,0,0,0,0,0,0,0,0,0,0,0,0,0,0,0,0,0,0,0,0,0,0,0,0,0,0,0,0,0,0,0,0,0,0,0,0,0,0,0,0,0,0,0,0,0,0,0,0,0,0,0,0,0,0,0,0,0,0,0,0,0,0,0,0,0,0,0,0,0,0,0,0],"id":3,"left_children":[1,3,5,7,9,11,13,15,17,19,21,23,25,27,29,31,33,35,37,39,41,43,45,47,49,51,53,55,57,59,61,63,65,67,69,-1,71,73,75,77,79,81,83,85,87,89,91,93,95,97,99,101,103,105,107,109,111,113,115,117,119,121,123,-1,-1,-1,-1,-1,-1,-1,-1,-1,-1,-1,-1,-1,-1,-1,-1,-1,-1,-1,-1,-1,-1,-1,-1,-1,-1,-1,-1,-1,-1,-1,-1,-1,-1,-1,-1,-1,-1,-1,-1,-1,-1,-1,-1,-1,-1,-1,-1,-1,-1,-1,-1,-1,-1,-1,-1,-1,-1,-1,-1,-1,-1],"loss_changes":[5.180264E2,9.324951E1,2.1382683E2,2.3933685E1,6.974445E1,1.4908105E2,1.5667088E1,1.302301E1,2.0065887E1,6.577582E1,3.1146835E1,3.528751E1,8.9107635E1,1.51115265E1,7.9224358E0,7.837494E0,1.6341682E1,4.685955E0,1.1091877E1,2.4374207E1,2.348066E1,1.4112167E1,1.3793781E1,3.730264E1,2.9372849E1,7.18053E1,2.1376083E1,1.4542427E1,1.6237143E1,5.1492176E0,3.2689695E0,7.89888E0,6.1972084E0,1.7528229E0,6.6219387E0,0E0,3.6361237E0,6.4908757E0,4.479479E0,1.4042427E1,1.817081E1,4.5831833E0,2.1621037E1,6.312454E0,8.467743E0,5.942297E0,7.7812605E0,2.0804306E1,3.7038757E1,9.015633E0,2.0771605E1,9.628607E1,1.9384854E2,2.8589996E1,1.9832504E1,2.698589E1,1.0621166E1,1.1520833E1,1.6197449E1,4.448677E0,5.1705923E0,6.5079603E0,5.0530624E0,0E0,0E0,0E0,0E0,0E0,0E0,0E0,0E0,0E0,0E0,0E0,0E0,0E0,0E0,0E0,0E0,0E0,0E0,0E0,0E0,0E0,0E0,0E0,0E0,0E0,0E0,0E0,0E0,0E0,0E0,0E0,0E0,0E0,0E0,0E0,0E0,0E0,0E0,0E0,0E0,0E0,0E0,0E0,0E0,0E0,0E0,0E0,0E0,0E0,0E0,0E0,0E0,0E0,0E0,0E0,0E0,0E0,0E0,0E0,0E0,0E0,0E0],"parents":[2147483647,0,0,1,1,2,2,3,3,4,4,5,5,6,6,7,7,8,8,9,9,10,10,11,11,12,12,13,13,14,14,15,15,16,16,17,17,18,18,19,19,20,20,21,21,22,22,23,23,24,24,25,25,26,26,27,27,28,28,29,29,30,30,31,31,32,32,33,33,34,34,36,36,37,37,38,38,39,39,40,40,41,41,42,42,43,43,44,44,45,45,46,46,47,47,48,48,49,49,50,50,51,51,52,52,53,53,54,54,55,55,56,56,57,57,58,58,59,59,60,60,61,61,62,62],"right_children":[2,4,6,8,10,12,14,16,18,20,22,24,26,28,30,32,34,36,38,40,42,44,46,48,50,52,54,56,58,60,62,64,66,68,70,-1,72,74,76,78,80,82,84,86,88,90,92,94,96,98,100,102,104,106,108,110,112,114,116,118,120,122,124,-1,-1,-1,-1,-1,-1,-1,-1,-1,-1,-1,-1,-1,-1,-1,-1,-1,-1,-1,-1,-1,-1,-1,-1,-1,-1,-1,-1,-1,-1,-1,-1,-1,-1,-1,-1,-1,-1,-1,-1,-1,-1,-1,-1,-1,-1,-1,-1,-1,-1,-1,-1,-1,-1,-1,-1,-1,-1,-1,-1,-1,-1],"split_conditions":[-3.8089204E-1,-1.2473713E0,1.1093988E0,2.5900286E-1,1.1093988E0,-5.166011E-1,2.52363E0,1.1093988E0,-1.058601E0,2.5398888E-2,1.6513988E0,6.996914E-1,7.3480964E-1,1.6513988E0,-1.0860448E0,3.7045E5,1.6513988E0,-1.1659026E0,1.1093988E0,-9.670691E-1,-1.3421029E0,-8.8052285E-1,-8.8052285E-1,-1.1690104E0,1.1254394E0,5.6739885E-1,-5.0548905E-1,3.7737373E-1,-9.720309E-1,8.7571E4,3.3025463E0,-1.4949368E0,5.7061594E-2,1.0033472E-1,-1.3711541E0,2.1922345E-1,-8.8880557E-1,-1.5656698E0,1.6513988E0,-1.1735997E0,2.3579438E0,5.6739885E-1,-9.644393E-1,1.8629E4,7.494316E-1,-9.2379594E-1,9.902584E-1,-9.354695E-1,-1.058601E0,1.5112157E0,1.6555798E0,7.331527E-1,1.6668283E0,2.0519824E0,2.3146474E0,-1.1690104E0,-1.2411323E0,-1.4487967E-1,1.4850748E0,3.7785506E0,2.8698149E0,2.9996343E0,6.058333E-1,-1.1537923E-1,-7.427245E-2,-1.797223E-1,1.04671605E-2,-2.2491212E-1,-1.2378808E-1,-1.350728E-1,-3.798017E-2,-2.2993629E-1,-1.2686019E-1,5.076279E-2,-3.158385E-2,-1.3957997E-1,-5.8462963E-2,1.8817551E-1,-1.3499258E-1,-4.0057596E-2,3.1709993E-1,-3.683024E-1,-1.285689E-1,-2.2250835E-2,2.4823101E-2,6.421747E-2,-2.5140166E-1,-1.2781385E-1,-5.5330727E-2,-1.100466E-1,-2.996206E-1,-2.4470791E-2,-9.708198E-2,-2.7972018E-2,-3.0831176E-1,-1.4593764E-2,4.0262997E-2,-1.2398124E-1,2.428489E-2,5.2342694E-2,-4.427595E-2,4.9918644E-2,1.17318265E-1,4.879276E-2,-2.7982593E-1,-2.947911E-2,6.762682E-2,4.4924695E-2,-1.7727187E-1,-2.7278113E-1,-2.4216475E-2,1.7675474E-1,-9.375887E-2,9.301881E-2,-8.607105E-3,-2.8337127E-2,9.413278E-2,-4.5227423E-1,-2.844698E-2,-5.5737575E-3,-2.1040718E-1,-9.1131486E-2,9.87538E-2,1.3689463E-2,-2.2111188E-1],"split_indices":[3,3,2,4,2,2,4,2,2,2,2,1,1,2,1,0,2,1,2,4,4,4,4,4,1,2,4,1,1,0,4,3,4,4,3,0,1,3,2,1,1,2,3,0,4,4,1,1,2,3,1,3,3,1,1,4,4,4,4,4,4,4,3,0,0,0,0,0,0,0,0,0,0,0,0,0,0,0,0,0,0,0,0,0,0,0,0,0,0,0,0,0,0,0,0,0,0,0,0,0,0,0,0,0,0,0,0,0,0,0,0,0,0,0,0,0,0,0,0,0,0,0,0,0,0],"split_type":[0,0,0,0,0,0,0,0,0,0,0,0,0,0,0,0,0,0,0,0,0,0,0,0,0,0,0,0,0,0,0,0,0,0,0,0,0,0,0,0,0,0,0,0,0,0,0,0,0,0,0,0,0,0,0,0,0,0,0,0,0,0,0,0,0,0,0,0,0,0,0,0,0,0,0,0,0,0,0,0,0,0,0,0,0,0,0,0,0,0,0,0,0,0,0,0,0,0,0,0,0,0,0,0,0,0,0,0,0,0,0,0,0,0,0,0,0,0,0,0,0,0,0,0,0],"sum_hessian":[3.9057645E4,1.4085507E4,2.4972137E4,3.908191E3,1.0177316E4,2.0159469E4,4.812669E3,2.605129E3,1.3030619E3,8.1301777E3,2.0471383E3,5.9146846E3,1.4244784E4,4.6375806E3,1.7508868E2,2.1360813E3,4.6904773E2,1.5691524E2,1.1461467E3,4.019532E3,4.110646E3,8.764617E2,1.1706766E3,4.5751406E3,1.3395441E3,1.1100708E4,3.144076E3,2.0254877E3,2.6120928E3,6.7349686E1,1.07739E2,1.9846564E3,1.5142484E2,1.9351363E2,2.7553412E2,2.1694994E0,1.5474574E2,8.928548E2,2.5329192E2,3.357368E2,3.6837952E3,3.100495E1,4.0796409E3,9.544646E1,7.8101526E2,1.5398216E2,1.0166944E3,9.4870605E1,4.48027E3,4.1691333E2,9.226307E2,7.6436533E3,3.4570544E3,1.7499572E3,1.3941188E3,1.451705E3,5.737828E2,4.0034576E2,2.211747E3,1.3065361E1,5.4284325E1,7.2315285E1,3.5423717E1,6.155137E2,1.3691427E3,1.3413994E2,1.7284891E1,1.7203021E2,2.1483406E1,1.7540863E2,1.0012549E2,4.6668724E1,1.0807702E2,9.566858E1,7.971862E2,1.08983536E2,1.4430838E2,1.1725527E1,3.2401126E2,3.671918E3,1.1877072E1,1.4393985E1,1.6610964E1,1.2778779E3,2.801763E3,5.698815E0,8.974764E1,5.851988E2,1.9581644E2,1.377067E2,1.6275467E1,8.603109E2,1.5638354E2,4.6249195E1,4.862141E1,2.0011416E3,2.4791284E3,3.7633032E2,4.058299E1,2.9234195E2,6.3028876E2,3.691669E3,3.9519844E3,3.2881433E3,1.6891107E2,1.4127983E3,3.3715878E2,1.3579451E3,3.6173733E1,3.945107E1,1.4122539E3,1.2483171E1,5.612996E2,2.024224E2,1.9792337E2,2.1108284E3,1.0091856E2,1.0100839E1,2.964522E0,1.5447643E1,3.883668E1,4.9258846E1,2.3056437E1,1.2390223E1,2.3033493E1],"tree_param":{"num_deleted":"0","num_feature":"5","num_nodes":"125","size_leaf_vector":"1"}},{"base_weights":[-6.954459E-4,-1.5747522E-1,4.426479E-2,-1.8524244E-1,-3.668574E-2,7.6443344E-2,-8.859259E-2,-1.5847331E-1,-3.04191E-1,-3.5156387E-1,5.7790787E-3,-8.320908E-2,1.0100409E-1,-1.3930364E-1,-4.930132E-2,-8.9322555E-1,-1.5366535E-1,-4.832248E-1,-1.8467313E-1,-1.9071026E-1,-6.429837E-1,5.4903034E-2,-1.5691489E-1,-2.0925477E-2,-2.158038E-1,1.5168606E-1,1.5557711E-2,-1.8852901E-1,-6.767758E-2,-4.0442456E-2,-3.354633E-1,-9.4355845E-1,1.3246253E-2,-2.0901233E-1,-9.4381824E-2,8.9891666E-1,-4.947222E-1,7.363165E-2,-2.3532365E-1,-2.5469023E-1,5.5996E-1,2.533646E-1,-7.7299124E-1,2.9795997E-2,4.0052053E-1,1.2987113E-1,-2.647317E-1,7.653128E-2,-1.2464466E-1,-4.5907322E-1,-5.3480577E-2,-5.114064E-1,1.6419542E-1,-7.8989565E-2,1.3037525E-1,-1.5144756E-1,-3.186884E-1,-1.9216286E-1,-3.0875768E-4,9.57778E-2,-6.546243E-2,-1.85176E-1,-7.40652E-1,-3.0027796E-2,-2.990926E-1,-4.591089E-2,-8.0108225E-2,7.087164E-3,-3.9952226E-2,3.109937E-2,3.55375E-1,-2.2027522E-1,-1.3602935E-1,-4.050562E-4,2.0126013E-1,-1.3659462E-1,-5.4719865E-2,-1.8765183E-1,-4.799403E-2,3.4368765E-1,1.3354414E-2,-9.011841E-2,3.5561574E-1,-2.7421293E-1,-1.2895863E-1,-5.7540573E-3,5.5285525E-2,-2.0458687E-2,1.5775701E-1,7.4123554E-2,-1.518593E-1,-1.1997827E-1,-1.9831209E-2,6.760993E-2,-1.5944116E-2,-1.2014773E-1,-2.075405E-2,-2.7549082E-1,-1.1325159E-1,-4.5171812E-2,1.0919545E-1,-7.71534E-2,-3.108066E-1,1.13097124E-1,3.1887867E-2,-1.2135547E-1,-5.236721E-3,-3.1445827E-2,4.7875118E-2,-2.1988003E-1,-3.787612E-2,-2.409251E-1,-4.9220253E-2,9.331383E-2,-7.2651155E-2,4.5841574E-3,-1.7133686E-1,-1.2643205E-1,3.825803E-2,-6.338359E-2,-3.0057116E-3,-4.1789207E-1,-2.7227223E-2,-2.972765E-1,-4.2278826E-2],"categories":[],"categories_nodes":[],"categories_segments":[],"categories_sizes":[],"default_left":[0,0,0,0,0,0,0,0,0,0,0,0,0,0,0,0,0,0,0,0,0,0,0,0,0,0,0,0,0,0,0,0,0,0,0,0,0,0,0,0,0,0,0,0,0,0,0,0,0,0,0,0,0,0,0,0,0,0,0,0,0,0,0,0,0,0,0,0,0,0,0,0,0,0,0,0,0,0,0,0,0,0,0,0,0,0,0,0,0,0,0,0,0,0,0,0,0,0,0,0,0,0,0,0,0,0,0,0,0,0,0,0,0,0,0,0,0,0,0,0,0,0,0,0,0],"id":4,"left_children":[1,3,5,7,9,11,13,15,17,19,21,23,25,27,29,31,33,35,37,39,41,43,45,47,49,51,53,55,57,59,61,63,-1,65,67,69,71,73,75,77,79,81,83,85,87,89,91,93,95,97,99,101,103,105,107,109,111,113,115,117,119,121,123,-1,-1,-1,-1,-1,-1,-1,-1,-1,-1,-1,-1,-1,-1,-1,-1,-1,-1,-1,-1,-1,-1,-1,-1,-1,-1,-1,-1,-1,-1,-1,-1,-1,-1,-1,-1,-1,-1,-1,-1,-1,-1,-1,-1,-1,-1,-1,-1,-1,-1,-1,-1,-1,-1,-1,-1,-1,-1,-1,-1,-1,-1],"loss_changes":[2.725337E2,2.8893326E1,1.2846207E2,2.225943E1,2.1553967E1,9.4857605E1,1.166716E1,2.00728E1,2.7426575E1,8.856731E0,1.1367541E1,2.6634075E1,9.078552E1,9.003609E0,8.35911E0,1.7866325E0,1.8633453E1,8.615379E0,1.0127466E1,6.138872E0,8.085789E0,9.467165E0,1.023412E1,2.2204998E1,4.0680134E1,1.0923584E2,8.475351E1,7.2641754E0,8.748482E0,1.0928631E1,5.8937035E0,1.4836559E0,0E0,9.504211E0,1.2576607E1,9.2149353E-1,4.716812E0,5.708249E0,7.4417953E0,3.9644275E0,3.0033827E0,5.1711426E0,2.4808617E0,7.717247E0,4.377305E0,6.8944745E0,6.4203205E0,2.1873814E1,1.625283E1,1.5101509E1,2.5160517E1,3.22621E1,1.5910373E2,8.575961E1,2.4236809E1,1.720953E1,2.4960537E1,9.293171E0,6.0408263E0,8.226318E0,2.1890965E1,8.26403E0,3.832058E0,0E0,0E0,0E0,0E0,0E0,0E0,0E0,0E0,0E0,0E0,0E0,0E0,0E0,0E0,0E0,0E0,0E0,0E0,0E0,0E0,0E0,0E0,0E0,0E0,0E0,0E0,0E0,0E0,0E0,0E0,0E0,0E0,0E0,0E0,0E0,0E0,0E0,0E0,0E0,0E0,0E0,0E0,0E0,0E0,0E0,0E0,0E0,0E0,0E0,0E0,0E0,0E0,0E0,0E0,0E0,0E0,0E0,0E0,0E0,0E0,0E0,0E0],"parents":[2147483647,0,0,1,1,2,2,3,3,4,4,5,5,6,6,7,7,8,8,9,9,10,10,11,11,12,12,13,13,14,14,15,15,16,16,17,17,18,18,19,19,20,20,21,21,22,22,23,23,24,24,25,25,26,26,27,27,28,28,29,29,30,30,31,31,33,33,34,34,35,35,36,36,37,37,38,38,39,39,40,40,41,41,42,42,43,43,44,44,45,45,46,46,47,47,48,48,49,49,50,50,51,51,52,52,53,53,54,54,55,55,56,56,57,57,58,58,59,59,60,60,61,61,62,62],"right_children":[2,4,6,8,10,12,14,16,18,20,22,24,26,28,30,32,34,36,38,40,42,44,46,48,50,52,54,56,58,60,62,64,-1,66,68,70,72,74,76,78,80,82,84,86,88,90,92,94,96,98,100,102,104,106,108,110,112,114,116,118,120,122,124,-1,-1,-1,-1,-1,-1,-1,-1,-1,-1,-1,-1,-1,-1,-1,-1,-1,-1,-1,-1,-1,-1,-1,-1,-1,-1,-1,-1,-1,-1,-1,-1,-1,-1,-1,-1,-1,-1,-1,-1,-1,-1,-1,-1,-1,-1,-1,-1,-1,-1,-1,-1,-1,-1,-1,-1,-1,-1,-1,-1,-1,-1],"split_conditions":[-8.406566E-1,8.0712914E-1,1.1093988E0,1.1093988E0,-1.058601E0,-1.058601E0,1.6513988E0,-1.3421029E0,1.6513988E0,-1.0705388E0,1.1093988E0,1.5803222E-1,6.275319E-2,5.7061594E-2,2.52363E0,2.116446E0,2.5398888E-2,-1.1615729E0,-9.65777E-1,-1.088222E0,1.0523435E0,3.73531E5,1.2110116E0,7.622319E-2,-8.2193667E-1,-1.1690104E0,-4.4779158E-1,1.1648872E0,-8.4599024E-1,-9.720309E-1,1.0868177E0,-1.6364028E0,1.3246253E-2,-1.9894953E-1,-7.6420814E-1,-1.2650546E0,-8.228253E-1,5.33066E-1,-6.429782E-1,5.7607E4,1.2831335E0,-1.1379993E-1,-9.113895E-1,-9.998058E-1,1.0667679E0,3.31183E5,-7.007068E-1,-5.7761097E-1,2.4219275E-1,-1.1351141E0,1.4850748E0,-9.147834E-1,-6.497328E-1,2.4219275E-1,1.5800528E-1,-1.1690104E0,1.4597839E0,2.1572973E-1,1.8295143E0,-1.1690104E0,-4.9047866E-1,1.8629E4,-6.429782E-1,-3.0027796E-2,-2.990926E-1,-4.591089E-2,-8.0108225E-2,7.087164E-3,-3.9952226E-2,3.109937E-2,3.55375E-1,-2.2027522E-1,-1.3602935E-1,-4.050562E-4,2.0126013E-1,-1.3659462E-1,-5.4719865E-2,-1.8765183E-1,-4.799403E-2,3.4368765E-1,1.3354414E-2,-9.011841E-2,3.5561574E-1,-2.7421293E-1,-1.2895863E-1,-5.7540573E-3,5.5285525E-2,-2.0458687E-2,1.5775701E-1,7.4123554E-2,-1.518593E-1,-1.1997827E-1,-1.9831209E-2,6.760993E-2,-1.5944116E-2,-1.2014773E-1,-2.075405E-2,-2.7549082E-1,-1.1325159E-1,-4.5171812E-2,1.0919545E-1,-7.71534E-2,-3.108066E-1,1.13097124E-1,3.1887867E-2,-1.2135547E-1,-5.236721E-3,-3.1445827E-2,4.7875118E-2,-2.1988003E-1,-3.787612E-2,-2.409251E-1,-4.9220253E-2,9.331383E-2,-7.2651155E-2,4.5841574E-3,-1.7133686E-1,-1.2643205E-1,3.825803E-2,-6.338359E-2,-3.0057116E-3,-4.1789207E-1,-2.7227223E-2,-2.972765E-1,-4.2278826E-2],"split_indices":[3,4,2,2,2,2,2,4,2,3,2,4,1,4,4,1,2,1,1,3,4,0,4,1,1,4,4,1,1,1,3,3,0,1,1,3,4,4,1,0,4,1,3,3,4,0,1,4,1,1,4,1,4,1,1,4,1,4,3,4,1,0,1,0,0,0,0,0,0,0,0,0,0,0,0,0,0,0,0,0,0,0,0,0,0,0,0,0,0,0,0,0,0,0,0,0,0,0,0,0,0,0,0,0,0,0,0,0,0,0,0,0,0,0,0,0,0,0,0,0,0,0,0,0,0],"split_type":[0,0,0,0,0,0,0,0,0,0,0,0,0,0,0,0,0,0,0,0,0,0,0,0,0,0,0,0,0,0,0,0,0,0,0,0,0,0,0,0,0,0,0,0,0,0,0,0,0,0,0,0,0,0,0,0,0,0,0,0,0,0,0,0,0,0,0,0,0,0,0,0,0,0,0,0,0,0,0,0,0,0,0,0,0,0,0,0,0,0,0,0,0,0,0,0,0,0,0,0,0,0,0,0,0,0,0,0,0,0,0,0,0,0,0,0,0,0,0,0,0,0,0,0,0],"sum_hessian":[3.8661547E4,8.615643E3,3.0045906E4,7.00483E3,1.6108124E3,2.4187924E4,5.857981E3,5.7199087E3,1.2849218E3,1.9055574E2,1.4202566E3,3.2246057E3,2.0963318E4,2.55624E3,3.301741E3,3.5984535E1,5.683924E3,5.1316876E2,7.7175305E2,1.23849525E2,6.6706215E1,1.0913854E3,3.2887128E2,2.1948015E3,1.0298043E3,1.3157975E4,7.805344E3,1.5140614E3,1.0421785E3,3.2037036E3,9.803737E1,3.4144543E1,1.8399934E0,2.9382517E3,2.745672E3,3.5968242E0,5.095719E2,1.2644778E2,6.453053E2,1.1473161E2,9.117912E0,8.329425E0,5.8376793E1,1.01848474E3,7.290059E1,8.980118E1,2.390701E2,1.1316969E3,1.0631045E3,4.1140887E2,6.1839545E2,2.4289302E2,1.2915082E4,4.280692E3,3.5246523E3,1.1800402E3,3.3402124E2,3.6530646E2,6.768721E2,4.9668643E2,2.707017E3,7.257559E1,2.5461771E1,2.2047522E0,3.193979E1,1.4972567E3,1.4409951E3,6.793837E2,2.0662886E3,1.3107587E0,2.2860653E0,7.2458664E1,4.3711325E2,1.1322973E2,1.3218051E1,1.2366382E2,5.216415E2,2.2201666E1,9.2529945E1,3.6959085E0,5.4220037E0,5.650112E0,2.6793125E0,4.019131E1,1.8185484E1,7.7399E2,2.4449477E2,1.5477121E1,5.742347E1,7.63448E1,1.3456379E1,1.4164561E2,9.742448E1,5.2658453E2,6.0511237E2,1.7693138E2,8.8617316E2,6.0505173E1,3.5090372E2,5.0222876E2,1.1616668E2,1.6461223E2,7.828079E1,2.7613735E3,1.0153708E4,6.796432E2,3.6010486E3,3.8908035E2,3.135572E3,4.783742E1,1.1322028E3,7.980736E1,2.5421387E2,3.254978E1,3.3275668E2,6.598251E2,1.7046995E1,2.8015505E1,4.6867093E2,7.449603E2,1.9620568E3,4.264983E0,6.831061E1,1.7504633E1,7.957138E0],"tree_param":{"num_deleted":"0","num_feature":"5","num_nodes":"125","size_leaf_vector":"1"}},{"base_weights":[-6.789327E-4,-7.497668E-2,5.8063503E-2,-9.949508E-2,3.787964E-2,6.827127E-2,-2.1202576E-1,3.412624E-1,-1.0534446E-1,7.802049E-2,-1.81981E-1,4.5884743E-2,1.805056E-1,-8.9710647E-1,-1.7053647E-1,1.6944256E-1,6.564753E-1,-2.1899879E-1,-8.605059E-2,-2.37242E-2,1.6752943E-1,-3.6842704E-1,-2.3651784E-2,1.3631198E-1,1.565935E-2,-3.420029E-2,2.3614173E-1,-3.3172095E-1,-1.1425371E0,-3.921538E-1,-7.3065154E-2,2.4426201E-1,-6.423918E-1,1.1373608E0,4.5466837E-1,-6.485295E-1,-1.9596438E-1,-1.8208817E-1,-6.0373392E-2,1.4104135E-1,-9.0013325E-2,6.6289425E-2,2.8882208E-1,-6.447806E-1,-1.2416342E-1,-3.6787307E-1,7.459091E-2,3.2823855E-1,1.0421852E-2,-3.887203E-1,3.0346902E-2,4.5478508E-1,-8.6219184E-2,2.0981209E-1,4.497438E-1,-6.192809E-1,3.5935897E-1,-6.338223E-1,-1.3631892E0,-5.5605507E-1,1.0031779E-1,1.7085431E-2,-3.441681E-1,1.2425774E-1,-4.1819937E-3,-3.5131902E-1,1.6643167E-2,1.05024345E-1,3.7972224E-1,-8.462924E-3,1.9802967E-1,-1.5215273E-1,-2.6902977E-1,-1.2190317E-2,-7.8003526E-2,-4.7313664E-2,-1.0509003E-1,-1.2045651E-2,-4.2922705E-2,1.3988277E-1,1.0810937E-2,-3.3052232E-2,1.2149261E-1,1.1802617E-1,1.0247851E-2,2.0318896E-2,1.3339153E-1,-7.535205E-2,-2.541526E-1,-7.603383E-2,9.413666E-2,-1.3703142E-1,-2.9393911E-2,3.773456E-2,-1.8613556E-1,-6.601222E-2,1.2735495E-1,-5.7680835E-3,8.080103E-2,-2.3230393E-1,-4.9870282E-2,1.05537914E-1,4.7489638E-3,6.408088E-2,2.8661647E-1,-1.5932262E-1,-9.753109E-3,4.4999674E-2,9.7125955E-2,1.7288597E-1,-1.3772426E-4,-8.1675336E-2,-4.0869293E-1,1.01134636E-1,-2.6620367E-1,-4.421417E-1,-2.1242304E-1,-5.7736445E-2,-2.421854E-1,-1.2765285E-1,1.1005878E-1,-3.9368704E-2,8.8853225E-2,7.364726E-2,-1.4311501E-1],"categories":[],"categories_nodes":[],"categories_segments":[],"categories_sizes":[],"default_left":[0,0,0,0,0,0,0,0,0,0,0,0,0,0,0,0,0,0,0,0,0,0,0,0,0,0,0,0,0,0,0,0,0,0,0,0,0,0,0,0,0,0,0,0,0,0,0,0,0,0,0,0,0,0,0,0,0,0,0,0,0,0,0,0,0,0,0,0,0,0,0,0,0,0,0,0,0,0,0,0,0,0,0,0,0,0,0,0,0,0,0,0,0,0,0,0,0,0,0,0,0,0,0,0,0,0,0,0,0,0,0,0,0,0,0,0,0,0,0,0,0,0,0,0,0],"id":5,"left_children":[1,3,5,7,9,11,13,15,17,19,21,23,25,27,29,31,33,35,37,39,41,43,45,47,49,51,53,55,57,59,61,63,65,67,69,71,73,75,77,79,81,83,85,87,89,91,93,95,97,99,101,103,105,107,109,111,-1,113,115,117,119,121,123,-1,-1,-1,-1,-1,-1,-1,-1,-1,-1,-1,-1,-1,-1,-1,-1,-1,-1,-1,-1,-1,-1,-1,-1,-1,-1,-1,-1,-1,-1,-1,-1,-1,-1,-1,-1,-1,-1,-1,-1,-1,-1,-1,-1,-1,-1,-1,-1,-1,-1,-1,-1,-1,-1,-1,-1,-1,-1,-1,-1,-1,-1],"loss_changes":[1.6746254E2,4.6882645E1,5.909182E1,3.5919525E1,2.6706284E1,5.1871758E1,2.2034523E1,9.774511E0,3.0103622E1,2.3301891E1,1.3784084E1,4.7052906E1,4.1020927E1,5.773754E0,1.589723E1,7.4144125E0,5.698328E0,1.9590431E1,2.8951675E1,1.3099151E1,1.6694351E1,1.4399265E1,8.608206E0,1.0420042E2,7.665508E1,1.803438E1,1.5241913E1,7.2650456E0,2.5606308E0,1.8215542E1,1.2550552E1,4.8376536E0,3.8864565E0,1.4030895E0,4.659095E0,3.0891685E0,1.8820702E1,1.0102226E1,1.549464E1,1.1735933E1,8.577147E0,7.797659E0,2.1291332E1,7.7854767E0,6.5963593E0,1.3110399E0,7.131109E0,9.0269714E1,2.0006178E1,3.8680946E1,5.810554E1,8.0281E0,1.5280567E1,1.6509132E1,1.6998405E1,3.0180607E0,0E0,3.0311847E0,4.3550873E-1,1.5278168E1,8.148771E0,1.6022749E1,1.0157256E1,0E0,0E0,0E0,0E0,0E0,0E0,0E0,0E0,0E0,0E0,0E0,0E0,0E0,0E0,0E0,0E0,0E0,0E0,0E0,0E0,0E0,0E0,0E0,0E0,0E0,0E0,0E0,0E0,0E0,0E0,0E0,0E0,0E0,0E0,0E0,0E0,0E0,0E0,0E0,0E0,0E0,0E0,0E0,0E0,0E0,0E0,0E0,0E0,0E0,0E0,0E0,0E0,0E0,0E0,0E0,0E0,0E0,0E0,0E0,0E0,0E0,0E0],"parents":[2147483647,0,0,1,1,2,2,3,3,4,4,5,5,6,6,7,7,8,8,9,9,10,10,11,11,12,12,13,13,14,14,15,15,16,16,17,17,18,18,19,19,20,20,21,21,22,22,23,23,24,24,25,25,26,26,27,27,28,28,29,29,30,30,31,31,32,32,33,33,34,34,35,35,36,36,37,37,38,38,39,39,40,40,41,41,42,42,43,43,44,44,45,45,46,46,47,47,48,48,49,49,50,50,51,51,52,52,53,53,54,54,55,55,57,57,58,58,59,59,60,60,61,61,62,62],"right_children":[2,4,6,8,10,12,14,16,18,20,22,24,26,28,30,32,34,36,38,40,42,44,46,48,50,52,54,56,58,60,62,64,66,68,70,72,74,76,78,80,82,84,86,88,90,92,94,96,98,100,102,104,106,108,110,112,-1,114,116,118,120,122,124,-1,-1,-1,-1,-1,-1,-1,-1,-1,-1,-1,-1,-1,-1,-1,-1,-1,-1,-1,-1,-1,-1,-1,-1,-1,-1,-1,-1,-1,-1,-1,-1,-1,-1,-1,-1,-1,-1,-1,-1,-1,-1,-1,-1,-1,-1,-1,-1,-1,-1,-1,-1,-1,-1,-1,-1,-1,-1,-1,-1,-1,-1],"split_conditions":[-1.1564329E-1,8.0712914E-1,1.8542708E0,-1.1659026E0,2.7544198E0,7.061585E-1,-1.1529137E0,-5.754078E-1,-8.8052285E-1,-9.113895E-1,3.1583023E0,-7.939766E-1,-1.0384188E0,2.4082348E0,-7.5070345E-1,-6.461408E-1,-8.6609846E-1,-1.3421029E0,-1.2827379E0,-9.354695E-1,-6.131518E-1,-1.0456347E0,-5.166011E-1,-3.047852E-1,-7.362791E-1,8.936754E-1,1.2817886E-1,2.033201E0,2.02403E0,1.8585919E0,2.033201E0,-1.1735997E0,-1.304553E-1,5.4488E4,-3.035478E-1,-9.3065876E-1,-3.1536874E-1,1.4299575E0,1.1093988E0,1.0667679E0,2.52363E0,-8.406566E-1,1.2110116E0,-1.1615729E0,-6.107743E-1,3.7785506E0,-2.7479255E-1,-1.1690104E0,-8.08401E-1,-1.1379993E-1,-7.218547E-1,8.504023E-1,-1.058601E0,9.9840146E-1,1.8316519E0,3.17056E5,3.5935897E-1,-1.1697512E0,1.1093988E0,-4.1350725E-1,-1.1401616E0,2.02403E0,6.5493E4,1.2425774E-1,-4.1819937E-3,-3.5131902E-1,1.6643167E-2,1.05024345E-1,3.7972224E-1,-8.462924E-3,1.9802967E-1,-1.5215273E-1,-2.6902977E-1,-1.2190317E-2,-7.8003526E-2,-4.7313664E-2,-1.0509003E-1,-1.2045651E-2,-4.2922705E-2,1.3988277E-1,1.0810937E-2,-3.3052232E-2,1.2149261E-1,1.1802617E-1,1.0247851E-2,2.0318896E-2,1.3339153E-1,-7.535205E-2,-2.541526E-1,-7.603383E-2,9.413666E-2,-1.3703142E-1,-2.9393911E-2,3.773456E-2,-1.8613556E-1,-6.601222E-2,1.2735495E-1,-5.7680835E-3,8.080103E-2,-2.3230393E-1,-4.9870282E-2,1.05537914E-1,4.7489638E-3,6.408088E-2,2.8661647E-1,-1.5932262E-1,-9.753109E-3,4.4999674E-2,9.7125955E-2,1.7288597E-1,-1.3772426E-4,-8.1675336E-2,-4.0869293E-1,1.01134636E-1,-2.6620367E-1,-4.421417E-1,-2.1242304E-1,-5.7736445E-2,-2.421854E-1,-1.2765285E-1,1.1005878E-1,-3.9368704E-2,8.8853225E-2,7.364726E-2,-1.4311501E-1],"split_indices":[3,4,3,1,4,4,1,3,4,3,4,4,1,4,4,3,4,4,3,1,1,1,2,1,4,4,1,4,3,1,4,1,4,0,4,1,1,1,2,4,4,3,4,1,3,4,3,4,4,1,4,4,2,3,1,0,0,1,2,1,4,3,0,0,0,0,0,0,0,0,0,0,0,0,0,0,0,0,0,0,0,0,0,0,0,0,0,0,0,0,0,0,0,0,0,0,0,0,0,0,0,0,0,0,0,0,0,0,0,0,0,0,0,0,0,0,0,0,0,0,0,0,0,0,0],"split_type":[0,0,0,0,0,0,0,0,0,0,0,0,0,0,0,0,0,0,0,0,0,0,0,0,0,0,0,0,0,0,0,0,0,0,0,0,0,0,0,0,0,0,0,0,0,0,0,0,0,0,0,0,0,0,0,0,0,0,0,0,0,0,0,0,0,0,0,0,0,0,0,0,0,0,0,0,0,0,0,0,0,0,0,0,0,0,0,0,0,0,0,0,0,0,0,0,0,0,0,0,0,0,0,0,0,0,0,0,0,0,0,0,0,0,0,0,0,0,0,0,0,0,0,0,0],"sum_hessian":[3.8367848E4,1.6940781E4,2.1427068E4,1.3917317E4,3.0234644E3,2.0647465E4,7.7960406E2,1.8152913E2,1.3735788E4,2.5572263E3,4.6623804E2,1.7215107E4,3.4323574E3,4.3340084E1,7.36264E2,1.1848276E2,6.304638E1,1.991879E3,1.1743909E4,1.1971559E3,1.3600704E3,2.1349852E2,2.5273953E2,4.311777E3,1.2903329E4,7.064552E2,2.725902E3,1.383068E1,2.9509405E1,2.2398145E2,5.1228253E2,1.0912483E2,9.357927E0,1.7266405E1,4.5779972E1,9.999944E1,1.8918795E3,2.4762346E3,9.267675E3,3.431381E2,8.5401776E2,7.421568E2,6.179136E2,9.940011E1,1.1409841E2,5.550775E1,1.9723178E2,1.7072981E3,2.604479E3,4.5134592E2,1.2451983E4,6.718294E1,6.392723E2,2.4285317E3,2.9737054E2,1.2142951E1,1.6877285E0,1.0098877E1,1.9410528E1,1.6795473E2,5.602673E1,3.8514594E2,1.2713661E2,6.544764E1,4.3677193E1,4.9386163E0,4.419311E0,2.9433653E0,1.4323039E1,1.3920823E1,3.185915E1,6.5655945E1,3.43435E1,5.528127E2,1.3390669E3,2.1645085E3,3.1172607E2,7.4480625E3,1.8196122E3,8.2907104E1,2.60231E2,8.213421E2,3.267566E1,6.536792E1,6.767889E2,2.5604227E2,3.6187134E2,3.4516033E1,6.488408E1,8.841868E1,2.5679733E1,4.123366E1,1.4274092E1,1.8446469E2,1.27670765E1,2.548283E2,1.4524697E3,2.3377095E3,2.6676944E2,1.642235E2,2.871224E2,5.3704846E2,1.1914936E4,4.6302067E1,2.0880867E1,6.7909294E1,5.71363E2,1.5940529E3,8.344788E2,2.3190639E2,6.546416E1,9.208535E0,2.934416E0,2.0226922E0,8.076184E0,1.5537334E1,3.8731935E0,6.93507E1,9.860402E1,1.8646122E1,3.7380604E1,2.5184225E2,1.3330367E2,2.3225742E1,1.0391087E2],"tree_param":{"num_deleted":"0","num_feature":"5","num_nodes":"125","size_leaf_vector":"1"}},{"base_weights":[-4.544803E-4,-3.4104772E-2,7.523622E-2,-9.1963306E-2,3.6782415E-3,1.4139104E-1,-5.4527562E-2,-8.655694E-2,-5.575958E-1,5.8060136E-2,-1.1058674E-1,2.431389E-2,2.1247576E-1,-1.4418647E-2,-4.3108675E-1,-5.762722E-1,-8.326125E-2,-4.7371E-1,-1.4207258E0,-1.8023998E-2,1.0724665E-1,-1.8158448E-1,-5.7048105E-2,8.395134E-2,-5.393742E-2,-1.3774018E-1,2.2664374E-1,-1.2096911E-1,2.314256E-2,-8.7392616E-1,-1.8108004E-1,-7.3204386E-1,3.451999E-1,-4.9985547E-2,-1.23109095E-1,-5.796748E-1,2.4398643E-1,-9.187874E-2,-4.9129626E-1,-8.687176E-2,2.4295032E-2,8.200907E-2,2.1305177E-1,-3.2500234E-1,-1.3758497E-1,3.747064E-2,-7.899557E-2,-3.3144873E-2,1.9559482E-1,-6.251688E-1,-3.8806565E-2,-2.411744E-1,3.456292E-1,1.3879783E-1,2.6575556E-1,1.80044E-2,-2.3155558E-1,1.21642016E-1,-7.27359E-2,-6.445196E-1,-1.3738492E0,-8.0122605E-2,-4.3874043E-1,-1.3356195E-1,-3.5855964E-1,-1.5824622E-1,3.4357354E-1,3.5701577E-2,-2.7822524E-2,-4.9630683E-2,-7.835953E-3,9.727319E-2,-1.9451223E-1,2.4479899E-1,-1.478122E-1,2.211708E-2,-5.3553194E-2,1.2893987E-1,2.3163261E-3,5.0537918E-2,1.0101554E-2,-4.366101E-3,8.3577424E-2,-8.858296E-2,-2.4624465E-1,1.7532163E-4,-4.7398712E-2,-1.6691597E-1,1.9728184E-2,-7.085694E-2,-6.941119E-3,5.3304816E-3,-1.3457799E-1,5.106751E-2,2.2102131E-1,2.4487846E-1,-2.3443761E-1,-1.8270792E-2,8.774326E-2,-1.3166341E-1,-8.266949E-3,3.676149E-1,6.947689E-2,-9.441893E-3,8.39012E-2,8.773075E-2,6.438089E-3,9.895977E-2,-1.3536932E-2,-9.7385004E-2,-1.1469154E-2,-2.8427567E-3,5.9752684E-2,7.491695E-2,-3.1959705E-2,-2.2029729E-1,-2.5112044E-2,4.288587E-2,-4.268783E-1,-9.4846636E-2,3.4585398E-2,-1.702843E-1,-9.172384E-3],"categories":[],"categories_nodes":[],"categories_segments":[],"categories_sizes":[],"default_left":[0,0,0,0,0,0,0,0,0,0,0,0,0,0,0,0,0,0,0,0,0,0,0,0,0,0,0,0,0,0,0,0,0,0,0,0,0,0,0,0,0,0,0,0,0,0,0,0,0,0,0,0,0,0,0,0,0,0,0,0,0,0,0,0,0,0,0,0,0,0,0,0,0,0,0,0,0,0,0,0,0,0,0,0,0,0,0,0,0,0,0,0,0,0,0,0,0,0,0,0,0,0,0,0,0,0,0,0,0,0,0,0,0,0,0,0,0,0,0,0,0,0,0],"id":6,"left_children":[1,3,5,7,9,11,13,15,17,19,21,23,25,27,29,31,33,35,37,39,41,43,45,47,49,51,53,55,57,59,61,63,65,67,69,71,73,-1,-1,75,77,79,81,83,85,87,89,91,93,95,97,99,101,103,105,107,109,111,113,115,117,119,121,-1,-1,-1,-1,-1,-1,-1,-1,-1,-1,-1,-1,-1,-1,-1,-1,-1,-1,-1,-1,-1,-1,-1,-1,-1,-1,-1,-1,-1,-1,-1,-1,-1,-1,-1,-1,-1,-1,-1,-1,-1,-1,-1,-1,-1,-1,-1,-1,-1,-1,-1,-1,-1,-1,-1,-1,-1,-1,-1,-1],"loss_changes":[9.722716E1,5.7767303E1,1.0085797E2,2.6231163E1,9.934775E1,6.4754395E1,5.9917812E1,1.6608864E1,7.988903E0,4.0540066E1,1.9586182E1,1.372843E1,2.4054276E1,1.4357362E1,4.2121857E1,1.013138E1,1.3588631E1,8.547741E0,1.9394226E0,1.2396732E1,1.7550934E1,1.3938271E1,6.10301E0,2.182914E1,1.0974418E1,9.526337E0,1.59522705E1,1.4373752E1,2.506092E1,1.4888367E1,6.3470716E0,7.3313885E0,8.0268135E0,4.0392365E1,1.9146286E1,6.209675E0,6.6910977E0,0E0,0E0,2.3849514E1,1.7708897E1,2.2199524E1,1.8896355E1,7.4140434E0,4.787018E0,9.357564E0,2.0951752E1,1.7259432E1,1.1608303E1,8.020501E0,9.100199E0,6.58337E0,3.097505E0,3.4447464E1,2.0974258E1,8.189908E0,9.356382E0,1.3307625E1,1.4682873E1,4.781555E0,3.3581772E0,8.223332E0,3.6041317E0,0E0,0E0,0E0,0E0,0E0,0E0,0E0,0E0,0E0,0E0,0E0,0E0,0E0,0E0,0E0,0E0,0E0,0E0,0E0,0E0,0E0,0E0,0E0,0E0,0E0,0E0,0E0,0E0,0E0,0E0,0E0,0E0,0E0,0E0,0E0,0E0,0E0,0E0,0E0,0E0,0E0,0E0,0E0,0E0,0E0,0E0,0E0,0E0,0E0,0E0,0E0,0E0,0E0,0E0,0E0,0E0,0E0,0E0,0E0,0E0],"parents":[2147483647,0,0,1,1,2,2,3,3,4,4,5,5,6,6,7,7,8,8,9,9,10,10,11,11,12,12,13,13,14,14,15,15,16,16,17,17,18,18,19,19,20,20,21,21,22,22,23,23,24,24,25,25,26,26,27,27,28,28,29,29,30,30,31,31,32,32,33,33,34,34,35,35,36,36,39,39,40,40,41,41,42,42,43,43,44,44,45,45,46,46,47,47,48,48,49,49,50,50,51,51,52,52,53,53,54,54,55,55,56,56,57,57,58,58,59,59,60,60,61,61,62,62],"right_children":[2,4,6,8,10,12,14,16,18,20,22,24,26,28,30,32,34,36,38,40,42,44,46,48,50,52,54,56,58,60,62,64,66,68,70,72,74,-1,-1,76,78,80,82,84,86,88,90,92,94,96,98,100,102,104,106,108,110,112,114,116,118,120,122,-1,-1,-1,-1,-1,-1,-1,-1,-1,-1,-1,-1,-1,-1,-1,-1,-1,-1,-1,-1,-1,-1,-1,-1,-1,-1,-1,-1,-1,-1,-1,-1,-1,-1,-1,-1,-1,-1,-1,-1,-1,-1,-1,-1,-1,-1,-1,-1,-1,-1,-1,-1,-1,-1,-1,-1,-1,-1,-1,-1],"split_conditions":[7.331527E-1,2.5398888E-2,5.6739885E-1,7.154695E-1,1.1093988E0,-5.166011E-1,1.7764645E0,-1.3421029E0,3.65885E5,-6.461408E-1,1.6513988E0,-1.6238812E-1,-1.1401616E0,-8.402174E-1,1.1093988E0,1.8855319E0,-2.0808987E-1,8.936754E-1,-7.939766E-1,-4.0451843E-1,6.340366E-1,-9.290728E-1,-9.4990164E-1,-8.1616384E-1,-1.258267E-1,3.32764E5,1.0514512E0,-1.0283163E0,3.5813205E-2,1.0845495E-1,9.3694854E-1,-5.166011E-1,-8.0276795E-2,-6.497328E-1,-1.0160654E-1,-9.814935E-1,2.23395E5,-9.187874E-2,-4.9129626E-1,-3.3220625E-1,-3.612453E-1,-6.497328E-1,-1.0037816E0,1.9870379E0,5.1419E4,1.401E4,-5.0491077E-1,1.7941477E0,-2.0808987E-1,4.3422E4,7.782804E-1,6.7563784E-1,8.038857E-1,2.5398888E-2,1.8542708E0,-8.6609846E-1,5.0421727E-1,-5.7370394E-1,8.038857E-1,-2.7495876E-1,1.0875E4,1.8542708E0,-4.6498188E-1,-1.3356195E-1,-3.5855964E-1,-1.5824622E-1,3.4357354E-1,3.5701577E-2,-2.7822524E-2,-4.9630683E-2,-7.835953E-3,9.727319E-2,-1.9451223E-1,2.4479899E-1,-1.478122E-1,2.211708E-2,-5.3553194E-2,1.2893987E-1,2.3163261E-3,5.0537918E-2,1.0101554E-2,-4.366101E-3,8.3577424E-2,-8.858296E-2,-2.4624465E-1,1.7532163E-4,-4.7398712E-2,-1.6691597E-1,1.9728184E-2,-7.085694E-2,-6.941119E-3,5.3304816E-3,-1.3457799E-1,5.106751E-2,2.2102131E-1,2.4487846E-1,-2.3443761E-1,-1.8270792E-2,8.774326E-2,-1.3166341E-1,-8.266949E-3,3.676149E-1,6.947689E-2,-9.441893E-3,8.39012E-2,8.773075E-2,6.438089E-3,9.895977E-2,-1.3536932E-2,-9.7385004E-2,-1.1469154E-2,-2.8427567E-3,5.9752684E-2,7.491695E-2,-3.1959705E-2,-2.2029729E-1,-2.5112044E-2,4.288587E-2,-4.268783E-1,-9.4846636E-2,3.4585398E-2,-1.702843E-1,-9.172384E-3],"split_indices":[3,2,2,3,2,2,3,4,0,3,2,1,4,1,2,1,1,4,4,4,4,3,1,1,1,0,3,1,1,1,4,2,3,4,4,4,0,0,0,1,4,4,1,1,0,0,1,3,1,0,4,1,3,2,3,4,4,1,3,1,0,3,1,0,0,0,0,0,0,0,0,0,0,0,0,0,0,0,0,0,0,0,0,0,0,0,0,0,0,0,0,0,0,0,0,0,0,0,0,0,0,0,0,0,0,0,0,0,0,0,0,0,0,0,0,0,0,0,0,0,0,0,0],"split_type":[0,0,0,0,0,0,0,0,0,0,0,0,0,0,0,0,0,0,0,0,0,0,0,0,0,0,0,0,0,0,0,0,0,0,0,0,0,0,0,0,0,0,0,0,0,0,0,0,0,0,0,0,0,0,0,0,0,0,0,0,0,0,0,0,0,0,0,0,0,0,0,0,0,0,0,0,0,0,0,0,0,0,0,0,0,0,0,0,0,0,0,0,0,0,0,0,0,0,0,0,0,0,0,0,0,0,0,0,0,0,0,0,0,0,0,0,0,0,0,0,0,0,0],"sum_hessian":[3.8170984E4,2.6424033E4,1.1746949E4,1.0438199E4,1.5985834E4,7.780359E3,3.9665906E3,1.0319566E4,1.1863254E2,1.0831373E4,5.154461E3,2.9398096E3,4.8405493E3,3.5857007E3,3.808899E2,6.7822136E1,1.0251744E4,1.0953581E2,9.096726E0,4.2531006E3,6.578273E3,2.2148933E3,2.9395676E3,1.6682886E3,1.271521E3,1.8787119E2,4.652678E3,9.339968E2,2.6517039E3,1.3653986E2,2.4435004E2,5.8190758E1,9.631376E0,5.5877993E3,4.663945E3,9.5611496E1,1.3924312E1,1.8751276E0,7.2215986E0,1.6186718E3,2.634429E3,5.312793E3,1.2654797E3,5.184856E2,1.6964076E3,5.538133E2,2.3857544E3,8.14603E2,8.536856E2,3.1770744E1,1.2397502E3,1.551684E2,3.270279E1,1.4347499E3,3.2179282E3,4.1424908E2,5.1974774E2,1.3078416E3,1.3438624E3,9.516118E1,4.1378677E1,1.7650296E2,6.784708E1,3.7146645E1,2.1044113E1,4.7694974E0,4.861879E0,1.1279347E3,4.4598647E3,3.2464675E3,1.4174773E3,6.490627E0,8.912087E1,7.777657E0,6.146654E0,5.881485E2,1.0305232E3,1.02468285E2,2.5319607E3,1.9043668E3,3.4084263E3,2.8310236E2,9.823774E2,4.9066403E2,2.7821571E1,2.1846855E2,1.4779391E3,2.4333897E1,5.294794E2,6.2465454E2,1.7610997E3,7.265248E2,8.807828E1,8.167112E2,3.6974403E1,2.694762E0,2.9075981E1,1.1629966E3,7.675368E1,8.003833E1,7.5130066E1,2.6344197E0,3.0068369E1,6.499464E2,7.848035E2,2.900913E3,3.170152E2,6.902542E1,3.4522366E2,3.5039743E2,1.693503E2,4.86312E2,8.2152954E2,1.2688042E2,1.2169819E3,8.175941E1,1.3401769E1,1.236957E0,4.014172E1,7.9661606E1,9.684135E1,5.1268856E1,1.6578222E1],"tree_param":{"num_deleted":"0","num_feature":"5","num_nodes":"123","size_leaf_vector":"1"}},{"base_weights":[-3.0640044E-4,-3.6598627E-2,3.874929E-2,-5.5951953E-2,2.6798673E-2,7.2922096E-2,-2.192678E-2,2.878543E-1,-6.0636632E-2,-1.4742747E-1,4.8027903E-2,3.084406E-2,1.582711E-1,-7.858965E-6,-2.6538056E-1,1.0323508E-1,5.542937E-1,-9.998218E-2,-3.4392282E-2,-1.1075583E-1,-4.374437E-1,-1.0457115E-1,6.539045E-2,-3.165453E-2,1.0050304E-1,2.3500334E-1,8.2061395E-2,1.3168126E-1,-2.5747051E-2,-6.1020374E-1,-5.4142658E-2,2.4791536E-1,-8.341575E-2,6.5041476E-1,-1.7331133E-2,-4.3213513E-1,-9.215951E-2,4.769602E-3,-1.2002246E-1,-9.656864E-2,-7.885056E-1,-5.1158667E-1,1.3173988E-1,-4.3721884E-3,-3.9640537E-1,6.905832E-1,5.903125E-2,-2.466379E-2,-2.2722639E-1,2.78001E-2,1.882851E-1,4.6857348E-1,1.9945255E-1,-6.1472025E-2,1.385132E-1,-3.5108888E-1,1.6140252E-1,-9.8167196E-2,2.0597028E-2,-4.734631E-1,-9.6197456E-1,-2.8138008E-2,-9.6419746E-1,1.3610222E-2,1.9687346E-1,-1.4473388E-1,1.2338803E-1,1.514399E-1,3.7029663E-1,-3.522271E-1,7.072384E-2,-1.7383677E-1,-1.2191308E-2,-2.9501462E-2,4.7166537E-2,-2.0491675E-2,7.946905E-3,-8.902546E-2,-2.9520229E-2,-3.990306E-2,8.2152255E-2,-3.475569E-1,2.1506798E-1,1.2931828E-1,-1.6948828E-1,1.1274388E-1,-1.565189E-1,8.729531E-2,-2.9837752E-2,-1.4828089E-1,1.1414599E-1,3.79138E-1,1.0282918E-1,1.311658E-2,9.305169E-2,-1.1125618E-2,8.818673E-2,-1.284355E-1,-3.273823E-3,1.4906386E-2,-6.652276E-2,-1.2002932E-1,5.836596E-2,2.6780909E-2,1.7438443E-1,-3.649215E-1,6.37721E-2,-1.0497666E-2,-1.931269E-1,4.2735443E-2,-2.7288398E-1,2.2049304E-3,-1.96342E-1,2.0878518E-1,4.2156074E-2,-3.2088315E-1,-2.6155895E-2,-2.3654718E-3,8.216302E-2,-7.914722E-2,-1.9734421E-1,-4.3104358E-2,-3.3211076E-1,-1.491973E-1,1.3445116E-3,-2.5037825E-2,-3.580244E-1],"categories":[],"categories_nodes":[],"categories_segments":[],"categories_sizes":[],"default_left":[0,0,0,0,0,0,0,0,0,0,0,0,0,0,0,0,0,0,0,0,0,0,0,0,0,0,0,0,0,0,0,0,0,0,0,0,0,0,0,0,0,0,0,0,0,0,0,0,0,0,0,0,0,0,0,0,0,0,0,0,0,0,0,0,0,0,0,0,0,0,0,0,0,0,0,0,0,0,0,0,0,0,0,0,0,0,0,0,0,0,0,0,0,0,0,0,0,0,0,0,0,0,0,0,0,0,0,0,0,0,0,0,0,0,0,0,0,0,0,0,0,0,0,0,0,0,0],"id":7,"left_children":[1,3,5,7,9,11,13,15,17,19,21,23,25,27,29,31,33,35,37,39,41,43,45,47,49,51,53,55,57,59,61,63,65,67,69,71,73,75,77,79,81,83,85,87,89,91,93,95,97,99,101,103,105,107,109,111,113,115,117,119,121,123,125,-1,-1,-1,-1,-1,-1,-1,-1,-1,-1,-1,-1,-1,-1,-1,-1,-1,-1,-1,-1,-1,-1,-1,-1,-1,-1,-1,-1,-1,-1,-1,-1,-1,-1,-1,-1,-1,-1,-1,-1,-1,-1,-1,-1,-1,-1,-1,-1,-1,-1,-1,-1,-1,-1,-1,-1,-1,-1,-1,-1,-1,-1,-1,-1],"loss_changes":[5.375417E1,2.412018E1,3.7876785E1,2.4274052E1,1.7013897E1,4.196179E1,3.5122993E1,9.909973E0,1.5339691E1,5.2656326E0,1.0868255E1,3.4083496E1,2.2544151E1,2.04741E1,3.956623E1,3.2860959E0,4.5556126E0,1.5406883E1,2.9896072E1,4.201848E0,2.4200726E0,1.2255206E1,1.4594861E1,5.6366277E0,2.3622406E1,1.5867035E1,1.5706497E1,1.4226992E1,1.6960258E1,9.473885E0,7.977156E0,5.6249022E0,1.0769364E1,5.3990574E0,4.0472755E0,7.850197E0,8.96682E0,9.712605E0,1.0661247E1,5.934223E0,5.8341327E0,2.7354946E0,1.347669E0,8.820559E0,8.332529E0,6.9383736E0,1.4001765E1,1.5784866E1,6.179198E0,1.1078108E1,6.2627106E0,1.07712555E1,3.1282173E1,8.42039E0,5.870495E0,6.2672343E0,1.0294472E1,2.0941069E1,2.2234602E1,5.6472397E0,6.584675E0,5.0506086E0,1.791234E0,0E0,0E0,0E0,0E0,0E0,0E0,0E0,0E0,0E0,0E0,0E0,0E0,0E0,0E0,0E0,0E0,0E0,0E0,0E0,0E0,0E0,0E0,0E0,0E0,0E0,0E0,0E0,0E0,0E0,0E0,0E0,0E0,0E0,0E0,0E0,0E0,0E0,0E0,0E0,0E0,0E0,0E0,0E0,0E0,0E0,0E0,0E0,0E0,0E0,0E0,0E0,0E0,0E0,0E0,0E0,0E0,0E0,0E0,0E0,0E0,0E0,0E0,0E0,0E0],"parents":[2147483647,0,0,1,1,2,2,3,3,4,4,5,5,6,6,7,7,8,8,9,9,10,10,11,11,12,12,13,13,14,14,15,15,16,16,17,17,18,18,19,19,20,20,21,21,22,22,23,23,24,24,25,25,26,26,27,27,28,28,29,29,30,30,31,31,32,32,33,33,34,34,35,35,36,36,37,37,38,38,39,39,40,40,41,41,42,42,43,43,44,44,45,45,46,46,47,47,48,48,49,49,50,50,51,51,52,52,53,53,54,54,55,55,56,56,57,57,58,58,59,59,60,60,61,61,62,62],"right_children":[2,4,6,8,10,12,14,16,18,20,22,24,26,28,30,32,34,36,38,40,42,44,46,48,50,52,54,56,58,60,62,64,66,68,70,72,74,76,78,80,82,84,86,88,90,92,94,96,98,100,102,104,106,108,110,112,114,116,118,120,122,124,126,-1,-1,-1,-1,-1,-1,-1,-1,-1,-1,-1,-1,-1,-1,-1,-1,-1,-1,-1,-1,-1,-1,-1,-1,-1,-1,-1,-1,-1,-1,-1,-1,-1,-1,-1,-1,-1,-1,-1,-1,-1,-1,-1,-1,-1,-1,-1,-1,-1,-1,-1,-1,-1,-1,-1,-1,-1,-1,-1,-1,-1,-1,-1,-1],"split_conditions":[1.4960545E-1,5.6191474E-1,5.6739885E-1,-1.1659026E0,-1.058601E0,2.5398888E-2,1.6668283E0,-5.5772454E-1,2.5398888E-2,2.7544198E0,-1.3711541E0,1.0337679E0,-3.2354695E-1,-8.6609846E-1,1.1093988E0,-1.1735997E0,2.1572973E-1,-1.1240494E0,1.1093988E0,1.9302715E0,3.56338E5,-3.047852E-1,-1.3534708E0,2.52363E0,-5.166011E-1,-8.6609846E-1,-7.362791E-1,2.0178E4,-5.7370394E-1,1.3780029E-1,2.8698149E0,-7.939766E-1,-1.1697512E0,-1.8815279E-1,-5.166011E-1,-5.8333416E-2,2.1982281E0,-1.1589551E0,-9.670691E-1,1.9360454E-1,2.116446E0,1.8629E4,3.5333362E0,-1.5656698E0,3.48597E5,-8.2193667E-1,2.8356487E-1,1.7158648E0,3.1583023E0,1.9002472E0,-1.2988298E0,-1.0968884E0,-8.08401E-1,1.9497603E0,3.5333362E0,7.4300077E-3,-1.1529137E0,-8.08401E-1,8.936754E-1,1.89138E5,1.7057315E0,-1.1401616E0,1.20542E5,1.3610222E-2,1.9687346E-1,-1.4473388E-1,1.2338803E-1,1.514399E-1,3.7029663E-1,-3.522271E-1,7.072384E-2,-1.7383677E-1,-1.2191308E-2,-2.9501462E-2,4.7166537E-2,-2.0491675E-2,7.946905E-3,-8.902546E-2,-2.9520229E-2,-3.990306E-2,8.2152255E-2,-3.475569E-1,2.1506798E-1,1.2931828E-1,-1.6948828E-1,1.1274388E-1,-1.565189E-1,8.729531E-2,-2.9837752E-2,-1.4828089E-1,1.1414599E-1,3.79138E-1,1.0282918E-1,1.311658E-2,9.305169E-2,-1.1125618E-2,8.818673E-2,-1.284355E-1,-3.273823E-3,1.4906386E-2,-6.652276E-2,-1.2002932E-1,5.836596E-2,2.6780909E-2,1.7438443E-1,-3.649215E-1,6.37721E-2,-1.0497666E-2,-1.931269E-1,4.2735443E-2,-2.7288398E-1,2.2049304E-3,-1.96342E-1,2.0878518E-1,4.2156074E-2,-3.2088315E-1,-2.6155895E-2,-2.3654718E-3,8.216302E-2,-7.914722E-2,-1.9734421E-1,-4.3104358E-2,-3.3211076E-1,-1.491973E-1,1.3445116E-3,-2.5037825E-2,-3.580244E-1],"split_indices":[3,4,2,1,2,2,3,3,2,4,3,3,1,4,2,1,4,1,2,1,0,1,3,4,2,4,4,0,1,1,4,4,1,4,2,4,1,3,4,1,1,0,4,3,0,1,1,4,4,3,4,4,4,3,4,1,1,4,4,0,3,4,0,0,0,0,0,0,0,0,0,0,0,0,0,0,0,0,0,0,0,0,0,0,0,0,0,0,0,0,0,0,0,0,0,0,0,0,0,0,0,0,0,0,0,0,0,0,0,0,0,0,0,0,0,0,0,0,0,0,0,0,0,0,0,0,0],"split_type":[0,0,0,0,0,0,0,0,0,0,0,0,0,0,0,0,0,0,0,0,0,0,0,0,0,0,0,0,0,0,0,0,0,0,0,0,0,0,0,0,0,0,0,0,0,0,0,0,0,0,0,0,0,0,0,0,0,0,0,0,0,0,0,0,0,0,0,0,0,0,0,0,0,0,0,0,0,0,0,0,0,0,0,0,0,0,0,0,0,0,0,0,0,0,0,0,0,0,0,0,0,0,0,0,0,0,0,0,0,0,0,0,0,0,0,0,0,0,0,0,0,0,0,0,0,0,0],"sum_hessian":[3.7922008E4,1.9656453E4,1.8265557E4,1.5059384E4,4.5970684E3,1.1684587E4,6.5809697E3,2.0162715E2,1.4857757E4,4.9866122E2,4.098407E3,7.827099E3,3.8574878E3,6.038321E3,5.4264923E2,1.199203E2,8.170684E1,5.9438794E3,8.913877E3,4.4391187E2,5.4749367E1,4.1816272E2,3.6802446E3,4.125876E3,3.7012231E3,1.9211161E3,1.9363717E3,9.865796E2,5.051741E3,2.0542548E2,3.3722375E2,6.737055E1,5.254975E1,6.982727E1,1.1879574E1,1.3551755E2,5.808362E3,6.117198E3,2.7966792E3,4.3592914E2,7.982733E0,4.8529068E1,6.220298E0,3.1204092E2,1.0612179E2,3.5973602E1,3.644271E3,3.984573E3,1.4130293E2,2.0252146E3,1.6760085E3,2.521698E2,1.6689463E3,5.465737E2,1.389798E3,5.658831E1,9.299913E2,1.97085E3,3.080891E3,1.4961351E2,5.5811974E1,3.2885764E2,8.366127E0,4.5775272E1,2.1595284E1,2.9101435E1,2.3448317E1,5.738187E1,1.2445398E1,1.479205E0,1.0400369E1,9.811624E1,3.74013E1,5.6685234E3,1.3983815E2,1.401119E3,4.716079E3,3.034717E2,2.4932075E3,3.9746655E2,3.846257E1,6.5927086E0,1.3900242E0,2.2213528E0,4.6307716E1,4.838135E0,1.3821632E0,7.549141E1,2.3654951E2,9.457239E1,1.1549398E1,1.259063E1,2.3382975E1,3.4359905E3,2.0828058E2,3.835911E3,1.4866203E2,7.275537E1,6.854756E1,1.8626399E3,1.6257477E2,1.7004187E1,1.6590044E3,5.8176495E1,1.9399332E2,1.4482457E1,1.6544639E3,5.2381305E2,2.2760687E1,1.3854563E3,4.341656E0,2.6387789E1,3.0200521E1,3.374909E1,8.962422E2,2.095128E1,1.9498987E3,2.7703296E3,3.1056158E2,7.1142845E1,7.847066E1,8.703858E0,4.7108112E1,2.0451204E1,3.0840643E2,2.0093927E0,6.3567343E0],"tree_param":{"num_deleted":"0","num_feature":"5","num_nodes":"127","size_leaf_vector":"1"}},{"base_weights":[-2.1294091E-4,-5.4705247E-2,1.3313368E-2,-3.051823E-2,-1.0571731E-1,2.8972177E-2,-3.9394703E-2,-3.3176646E-2,6.2608117E-1,-9.847288E-2,-5.9264773E-1,1.3619154E-2,1.9217308E-1,-6.5130614E-2,1.00834884E-1,-1.6677795E-1,-2.307495E-2,-4.9480432E-1,1.0081153E0,-1.0560174E-1,2.549015E-1,-4.241087E-1,-2.9786807E-1,3.2562494E-2,-1.4114478E-1,1.7633446E-1,1.165918E0,3.1026664E-1,-7.536031E-2,1.7776726E-1,-1.6609602E-1,-1.3889882E-1,-5.668653E-1,4.8292126E-3,-7.031564E-2,2.118886E-1,-9.051461E-1,-1.046554E-1,1.2166421E0,-8.9108594E-2,-3.4866238E-1,4.962486E-1,-5.7084596E-1,-4.8882145E-1,1.673018E-1,1.21061236E-1,2.5133637E-3,-4.2311054E-1,-8.241346E-2,2.6012304E-1,9.9120714E-2,-2.4829911E-2,1.2149504E0,5.106723E-1,-8.965034E-2,-1.4106116E-1,-2.2795474E-2,2.374733E-1,-1.8522434E-2,-4.531405E-1,1.3240094E-1,-4.9221747E-2,1.3538417E-1,8.899617E-2,-2.6101595E-1,4.3694424E-3,-9.293494E-2,-4.0869884E-2,-3.0282822E-3,-3.0810577E-1,-8.067718E-2,4.128666E-1,-1.1100328E-1,-8.567254E-2,-2.280097E-2,-1.7307588E-1,-4.073397E-2,7.0941135E-2,3.4354708E-1,-3.7240905E-1,9.794946E-3,-2.948862E-1,-9.0094045E-2,-6.296727E-2,4.9298648E-2,-1.3473232E-1,3.7251278E-3,-2.8159714E-1,-1.18370414E-1,-6.5244794E-2,-5.924108E-3,-1.252526E-3,1.2698306E-1,5.5246036E-2,-1.3354656E-2,4.121918E-1,2.5480822E-1,2.0002369E-2,2.4967553E-1,2.721192E-2,-1.7411844E-1,-2.8767502E-2,-7.464102E-2,8.235893E-3,-6.263497E-2,1.0683648E-1,4.0348645E-2,-2.4134143E-1,1.3949414E-2,-5.240727E-3,-1.7178115E-1,2.0026214E-1,4.033511E-3],"categories":[],"categories_nodes":[],"categories_segments":[],"categories_sizes":[],"default_left":[0,0,0,0,0,0,0,0,0,0,0,0,0,0,0,0,0,0,0,0,0,0,0,0,0,0,0,0,0,0,0,0,0,0,0,0,0,0,0,0,0,0,0,0,0,0,0,0,0,0,0,0,0,0,0,0,0,0,0,0,0,0,0,0,0,0,0,0,0,0,0,0,0,0,0,0,0,0,0,0,0,0,0,0,0,0,0,0,0,0,0,0,0,0,0,0,0,0,0,0,0,0,0,0,0,0,0,0,0,0,0,0,0],"id":8,"left_children":[1,3,5,7,9,11,13,15,17,19,21,23,25,27,29,31,33,35,37,39,41,43,-1,45,47,49,51,53,55,57,59,61,63,65,67,-1,69,-1,71,73,75,77,79,81,-1,83,85,87,89,91,93,-1,95,97,99,101,103,105,107,109,111,-1,-1,-1,-1,-1,-1,-1,-1,-1,-1,-1,-1,-1,-1,-1,-1,-1,-1,-1,-1,-1,-1,-1,-1,-1,-1,-1,-1,-1,-1,-1,-1,-1,-1,-1,-1,-1,-1,-1,-1,-1,-1,-1,-1,-1,-1,-1,-1,-1,-1,-1,-1],"loss_changes":[2.7812872E1,9.2552185E0,2.4951382E1,8.908417E0,8.454016E0,5.8395317E1,2.499607E1,6.841487E0,9.312507E0,6.019861E0,1.9517927E0,6.246178E1,3.0701057E1,2.2493185E1,2.2087564E1,3.8964415E0,6.217992E0,3.5485058E0,4.8611937E0,9.319986E0,9.71696E0,1.9561639E0,0E0,5.047692E1,3.8441658E1,1.2739208E1,2.0534096E0,1.25014515E1,1.9670975E1,9.782158E0,2.0695004E1,5.043638E0,6.251345E0,9.089691E0,6.951703E0,0E0,9.893346E-2,0E0,4.0068665E0,5.606037E0,7.107481E0,5.9941683E0,4.560981E0,2.070108E0,0E0,6.8929924E1,6.3388756E1,5.519821E0,1.6282259E1,4.0778473E1,1.2569275E1,0E0,6.209793E-1,1.4748112E1,4.719919E0,1.2297688E1,2.9593576E1,7.769142E0,1.0028638E1,6.3916245E0,7.555827E0,0E0,0E0,0E0,0E0,0E0,0E0,0E0,0E0,0E0,0E0,0E0,0E0,0E0,0E0,0E0,0E0,0E0,0E0,0E0,0E0,0E0,0E0,0E0,0E0,0E0,0E0,0E0,0E0,0E0,0E0,0E0,0E0,0E0,0E0,0E0,0E0,0E0,0E0,0E0,0E0,0E0,0E0,0E0,0E0,0E0,0E0,0E0,0E0,0E0,0E0,0E0,0E0],"parents":[2147483647,0,0,1,1,2,2,3,3,4,4,5,5,6,6,7,7,8,8,9,9,10,10,11,11,12,12,13,13,14,14,15,15,16,16,17,17,18,18,19,19,20,20,21,21,23,23,24,24,25,25,26,26,27,27,28,28,29,29,30,30,31,31,32,32,33,33,34,34,36,36,38,38,39,39,40,40,41,41,42,42,43,43,45,45,46,46,47,47,48,48,49,49,50,50,52,52,53,53,54,54,55,55,56,56,57,57,58,58,59,59,60,60],"right_children":[2,4,6,8,10,12,14,16,18,20,22,24,26,28,30,32,34,36,38,40,42,44,-1,46,48,50,52,54,56,58,60,62,64,66,68,-1,70,-1,72,74,76,78,80,82,-1,84,86,88,90,92,94,-1,96,98,100,102,104,106,108,110,112,-1,-1,-1,-1,-1,-1,-1,-1,-1,-1,-1,-1,-1,-1,-1,-1,-1,-1,-1,-1,-1,-1,-1,-1,-1,-1,-1,-1,-1,-1,-1,-1,-1,-1,-1,-1,-1,-1,-1,-1,-1,-1,-1,-1,-1,-1,-1,-1,-1,-1,-1,-1],"split_conditions":[-9.113895E-1,2.70394E5,7.1556675E-1,2.3579438E0,2.2492216E0,2.8356487E-1,2.0755548E0,-9.670691E-1,-1.5090834E0,2.116446E0,-1.8815279E-1,8.632568E-2,1.3264067E0,-1.2411323E0,2.3146474E0,2.116446E0,5.6739885E-1,-1.6364028E0,3.4118E4,1.8316519E0,-2.6027468E-1,-9.290728E-1,-2.9786807E-1,-5.7761097E-1,-8.8052285E-1,5.3564614E-1,-8.583398E-1,1.1221842E0,-5.920353E-1,1.1469407E0,2.3579438E0,2.00147E0,-1.2411323E0,-9.290728E-1,-1.5060286E-2,2.118886E-1,1.87584E5,-1.046554E-1,-1.0351723E0,-1.1192386E0,-1.2827379E0,-6.2088406E-1,-2.9484661E-2,2.99846E5,1.673018E-1,-1.0968884E0,-5.1991343E-1,9.59471E-2,1.4838386E-1,-7.362791E-1,5.6739885E-1,-2.4829911E-2,5.3564614E-1,6.118921E-2,1.9870379E0,-7.362791E-1,1.9158393E0,-6.93006E-1,-1.1978592E0,-5.166011E-1,-4.3040514E-1,-4.9221747E-2,1.3538417E-1,8.899617E-2,-2.6101595E-1,4.3694424E-3,-9.293494E-2,-4.0869884E-2,-3.0282822E-3,-3.0810577E-1,-8.067718E-2,4.128666E-1,-1.1100328E-1,-8.567254E-2,-2.280097E-2,-1.7307588E-1,-4.073397E-2,7.0941135E-2,3.4354708E-1,-3.7240905E-1,9.794946E-3,-2.948862E-1,-9.0094045E-2,-6.296727E-2,4.9298648E-2,-1.3473232E-1,3.7251278E-3,-2.8159714E-1,-1.18370414E-1,-6.5244794E-2,-5.924108E-3,-1.252526E-3,1.2698306E-1,5.5246036E-2,-1.3354656E-2,4.121918E-1,2.5480822E-1,2.0002369E-2,2.4967553E-1,2.721192E-2,-1.7411844E-1,-2.8767502E-2,-7.464102E-2,8.235893E-3,-6.263497E-2,1.0683648E-1,4.0348645E-2,-2.4134143E-1,1.3949414E-2,-5.240727E-3,-1.7178115E-1,2.0026214E-1,4.033511E-3],"split_indices":[3,0,1,1,1,1,1,4,3,1,4,1,4,4,1,1,2,3,0,1,4,3,0,4,4,1,3,3,4,3,1,1,4,3,4,0,0,0,3,1,3,4,4,0,0,4,4,1,1,4,2,0,1,3,1,4,1,4,4,2,3,0,0,0,0,0,0,0,0,0,0,0,0,0,0,0,0,0,0,0,0,0,0,0,0,0,0,0,0,0,0,0,0,0,0,0,0,0,0,0,0,0,0,0,0,0,0,0,0,0,0,0,0],"split_type":[0,0,0,0,0,0,0,0,0,0,0,0,0,0,0,0,0,0,0,0,0,0,0,0,0,0,0,0,0,0,0,0,0,0,0,0,0,0,0,0,0,0,0,0,0,0,0,0,0,0,0,0,0,0,0,0,0,0,0,0,0,0,0,0,0,0,0,0,0,0,0,0,0,0,0,0,0,0,0,0,0,0,0,0,0,0,0,0,0,0,0,0,0,0,0,0,0,0,0,0,0,0,0,0,0,0,0,0,0,0,0,0,0],"sum_hessian":[3.773188E4,7.502827E3,3.0229053E4,5.090703E3,2.4121238E3,2.3305713E4,6.9233413E3,5.071121E3,1.9582312E1,2.3779475E3,3.417628E1,2.1302752E4,2.0029598E3,5.850206E3,1.0731351E3,3.5538754E2,4.7157334E3,4.9026847E0,1.4679626E1,2.3316113E3,4.6336018E1,2.549869E1,8.67759E0,1.8980322E4,2.3224304E3,1.9720638E3,3.0895887E1,1.54413E2,5.6957935E3,8.3330237E2,2.3983273E2,3.3349585E2,2.1891691E1,2.9651653E3,1.7505681E3,1.0647752E0,3.8379095E0,1.8657188E0,1.2813908E1,2.1847307E3,1.468807E2,3.616488E1,1.0171136E1,2.439297E1,1.1057209E0,4.8103027E3,1.417002E4,3.9928445E2,1.923146E3,9.446292E2,1.0274347E3,1.1413625E0,2.9754526E1,1.0268083E2,5.1732162E1,2.5308267E3,3.1649666E3,6.3878986E2,1.9451248E2,1.2199767E2,1.1783505E2,3.2054523E2,1.2950619E1,5.694514E0,1.6197178E1,2.8770881E3,8.807702E1,8.351569E2,9.154112E2,2.7054205E0,1.1324888E0,1.1763412E1,1.0504956E0,1.3531973E2,2.049411E3,7.0055565E1,7.682514E1,2.6800299E1,9.364581E0,4.317357E0,5.853779E0,5.5722203E0,1.882075E1,5.5572577E2,4.254577E3,3.0311874E2,1.38669E4,1.9273441E1,3.8001102E2,6.0870105E2,1.314445E3,3.609267E2,5.837025E2,6.451961E2,3.822386E2,1.8813076E1,1.0941449E1,4.3638058E1,5.904277E1,3.8425365E1,1.3306794E1,1.7845626E3,7.4626404E2,2.4924358E3,6.725309E2,2.9566928E2,3.4312057E2,1.3993268E1,1.8051921E2,2.6500196E1,9.549748E1,2.0591173E1,9.724388E1],"tree_param":{"num_deleted":"0","num_feature":"5","num_nodes":"113","size_leaf_vector":"1"}},{"base_weights":[-1.8538212E-4,-1.6527535E-2,3.6812954E-2,-4.6781413E-2,3.3215226E-3,7.080005E-2,-2.8689288E-2,-4.2779446E-2,-3.8666338E-1,6.26549E-2,-2.8966093E-2,-4.091453E-2,9.344076E-2,-6.207291E-3,-2.2515082E-1,-5.3441618E-2,4.15304E-2,-4.6946222E-1,5.4897953E-2,1.1892424E-1,2.1096628E-2,-7.5997666E-2,4.129243E-3,1.6643366E-2,-1.7865093E-1,5.9197687E-2,1.603338E-1,1.0442154E-4,-4.0528333E-1,-5.034172E-1,-7.3131256E-2,-3.4405372E-1,-5.0356437E-2,-3.8255636E-2,1.5439004E-1,-6.332402E-1,-2.0000449E-1,-2.2378902E-1,7.6327986E-1,2.8448448E-1,5.7332978E-2,-1.8872831E-2,9.259144E-2,4.060659E-2,-9.052335E-2,-5.4644864E-2,3.842285E-2,1.4290978E-1,-9.609558E-2,7.3165916E-2,-2.725495E-1,6.9043815E-2,-2.3338495E-1,-4.050219E-1,1.7471531E-1,2.9359179E-2,-6.1104905E-2,-6.428743E-1,1.5608011E-1,-7.1524435E-1,-2.2099578E-1,-5.2479323E-2,-8.457174E-1,-9.076492E-3,-1.5308239E-1,-1.595235E-2,7.734035E-2,-4.3150753E-2,2.3004308E-2,5.8845166E-2,-1.2370556E-1,-2.4629337E-1,-1.05276875E-1,2.2865193E-1,-1.04611576E-1,7.749004E-2,-2.1480754E-1,3.3981028E-1,-1.0665912E-2,-5.133721E-2,1.04633845E-1,-1.0153831E-2,3.654107E-2,-4.054459E-2,1.415244E-2,-5.970547E-2,3.4680966E-2,-1.5390544E-2,1.2415335E-1,-3.6801925E-1,-2.5817163E-2,-4.700019E-2,-2.0456088E-3,4.2151347E-2,-3.6673158E-4,-1.3318702E-2,8.52452E-2,-3.5801362E-2,1.4793926E-1,-3.1539693E-2,9.833674E-2,-5.9895772E-2,-2.0981668E-1,1.2427056E-1,1.8898845E-2,-1.0852492E-1,5.441879E-2,-4.154287E-2,-2.8577003E-1,4.8481416E-2,1.3176203E-1,4.867433E-2,1.6675743E-3,-4.887116E-2,6.129771E-3,-2.3960322E-1,2.0914268E-1,-9.533792E-2,2.2633862E-1,-1.2939736E-1,-2.7143344E-1,-4.223269E-2,-2.39844E-1,-6.562141E-2,1.365376E-2,8.348587E-3,-3.081961E-1],"categories":[],"categories_nodes":[],"categories_segments":[],"categories_sizes":[],"default_left":[0,0,0,0,0,0,0,0,0,0,0,0,0,0,0,0,0,0,0,0,0,0,0,0,0,0,0,0,0,0,0,0,0,0,0,0,0,0,0,0,0,0,0,0,0,0,0,0,0,0,0,0,0,0,0,0,0,0,0,0,0,0,0,0,0,0,0,0,0,0,0,0,0,0,0,0,0,0,0,0,0,0,0,0,0,0,0,0,0,0,0,0,0,0,0,0,0,0,0,0,0,0,0,0,0,0,0,0,0,0,0,0,0,0,0,0,0,0,0,0,0,0,0,0,0,0,0],"id":9,"left_children":[1,3,5,7,9,11,13,15,17,19,21,23,25,27,29,31,33,35,37,39,41,43,45,47,49,51,53,55,57,59,61,63,65,67,69,71,73,75,77,79,81,83,85,87,89,91,93,95,97,99,101,103,105,107,109,111,113,115,117,119,121,123,125,-1,-1,-1,-1,-1,-1,-1,-1,-1,-1,-1,-1,-1,-1,-1,-1,-1,-1,-1,-1,-1,-1,-1,-1,-1,-1,-1,-1,-1,-1,-1,-1,-1,-1,-1,-1,-1,-1,-1,-1,-1,-1,-1,-1,-1,-1,-1,-1,-1,-1,-1,-1,-1,-1,-1,-1,-1,-1,-1,-1,-1,-1,-1,-1],"loss_changes":[2.2754383E1,1.5675589E1,2.5670277E1,1.4049761E1,3.019975E1,1.9204742E1,1.7398806E1,9.191174E0,4.4212494E0,1.2988329E1,1.5890597E1,1.0150193E1,1.4449959E1,8.906736E0,1.7074148E1,8.119225E0,1.0344718E1,4.3458176E0,4.095302E0,2.4046116E1,9.136279E0,7.1456776E0,1.2081752E1,1.28770895E1,8.941706E0,1.2048496E1,1.7443645E1,6.236809E0,7.4432163E0,8.381168E0,4.148024E0,4.9479895E0,7.812729E0,8.183299E0,1.1340025E1,3.0282764E0,5.9564176E0,3.7539265E0,1.7635028E0,1.8795185E1,1.0121725E1,1.5758708E1,7.715948E0,1.606794E1,1.8923048E1,1.0776274E1,1.531982E1,1.1299631E1,6.6048694E0,4.722815E0,8.418541E0,8.411016E0,7.3178773E0,7.6479635E0,7.1569824E0,7.452677E0,9.352419E0,8.673658E0,5.110306E0,3.9747734E0,2.793514E0,4.196725E0,1.1033225E0,0E0,0E0,0E0,0E0,0E0,0E0,0E0,0E0,0E0,0E0,0E0,0E0,0E0,0E0,0E0,0E0,0E0,0E0,0E0,0E0,0E0,0E0,0E0,0E0,0E0,0E0,0E0,0E0,0E0,0E0,0E0,0E0,0E0,0E0,0E0,0E0,0E0,0E0,0E0,0E0,0E0,0E0,0E0,0E0,0E0,0E0,0E0,0E0,0E0,0E0,0E0,0E0,0E0,0E0,0E0,0E0,0E0,0E0,0E0,0E0,0E0,0E0,0E0,0E0],"parents":[2147483647,0,0,1,1,2,2,3,3,4,4,5,5,6,6,7,7,8,8,9,9,10,10,11,11,12,12,13,13,14,14,15,15,16,16,17,17,18,18,19,19,20,20,21,21,22,22,23,23,24,24,25,25,26,26,27,27,28,28,29,29,30,30,31,31,32,32,33,33,34,34,35,35,36,36,37,37,38,38,39,39,40,40,41,41,42,42,43,43,44,44,45,45,46,46,47,47,48,48,49,49,50,50,51,51,52,52,53,53,54,54,55,55,56,56,57,57,58,58,59,59,60,60,61,61,62,62],"right_children":[2,4,6,8,10,12,14,16,18,20,22,24,26,28,30,32,34,36,38,40,42,44,46,48,50,52,54,56,58,60,62,64,66,68,70,72,74,76,78,80,82,84,86,88,90,92,94,96,98,100,102,104,106,108,110,112,114,116,118,120,122,124,126,-1,-1,-1,-1,-1,-1,-1,-1,-1,-1,-1,-1,-1,-1,-1,-1,-1,-1,-1,-1,-1,-1,-1,-1,-1,-1,-1,-1,-1,-1,-1,-1,-1,-1,-1,-1,-1,-1,-1,-1,-1,-1,-1,-1,-1,-1,-1,-1,-1,-1,-1,-1,-1,-1,-1,-1,-1,-1,-1,-1,-1,-1,-1,-1],"split_conditions":[7.331527E-1,2.5398888E-2,5.6739885E-1,7.154695E-1,5.6739885E-1,-1.058601E0,1.7410979E0,1.2110116E0,6.9173414E-1,-5.0491077E-1,-4.6498188E-1,2.1572973E-1,1.2918347E-1,2.2492216E0,1.1093988E0,-1.2988298E0,-5.166011E-1,1.0845495E-1,-5.7370394E-1,-5.0548905E-1,-8.7182164E-2,-8.516741E-1,-6.461408E-1,-1.6238812E-1,1.17403E5,1.9497603E0,-1.1615729E0,1.30609E0,2.3579438E0,1.5803222E-1,2.8698149E0,-1.058601E0,6.977862E-1,-5.754078E-1,5.068071E-1,2.24904E5,3.8673E4,2.23395E5,-3.8752943E-1,-1.1113129E0,3.455491E-1,2.4219275E-1,2.6284E4,-8.9494723E-1,-8.372497E-1,-6.064597E-1,-5.0779603E-2,1.185844E0,3.87333E5,1.1388898E0,2.4082348E0,-1.1529137E0,1.3693424E0,1.7764645E0,1.3693424E0,-8.6609846E-1,1.1093988E0,1.4404827E0,2.3442E5,1.89138E5,3.45516E5,1.48882E5,1.20542E5,-9.076492E-3,-1.5308239E-1,-1.595235E-2,7.734035E-2,-4.3150753E-2,2.3004308E-2,5.8845166E-2,-1.2370556E-1,-2.4629337E-1,-1.05276875E-1,2.2865193E-1,-1.04611576E-1,7.749004E-2,-2.1480754E-1,3.3981028E-1,-1.0665912E-2,-5.133721E-2,1.04633845E-1,-1.0153831E-2,3.654107E-2,-4.054459E-2,1.415244E-2,-5.970547E-2,3.4680966E-2,-1.5390544E-2,1.2415335E-1,-3.6801925E-1,-2.5817163E-2,-4.700019E-2,-2.0456088E-3,4.2151347E-2,-3.6673158E-4,-1.3318702E-2,8.52452E-2,-3.5801362E-2,1.4793926E-1,-3.1539693E-2,9.833674E-2,-5.9895772E-2,-2.0981668E-1,1.2427056E-1,1.8898845E-2,-1.0852492E-1,5.441879E-2,-4.154287E-2,-2.8577003E-1,4.8481416E-2,1.3176203E-1,4.867433E-2,1.6675743E-3,-4.887116E-2,6.129771E-3,-2.3960322E-1,2.0914268E-1,-9.533792E-2,2.2633862E-1,-1.2939736E-1,-2.7143344E-1,-4.223269E-2,-2.39844E-1,-6.562141E-2,1.365376E-2,8.348587E-3,-3.081961E-1],"split_indices":[3,2,2,3,2,2,3,4,4,1,1,4,4,1,2,4,2,1,1,4,4,4,3,1,0,3,1,3,1,4,4,2,3,3,3,0,0,0,1,4,4,1,0,4,4,4,1,3,0,4,4,1,1,3,1,4,2,3,0,0,0,0,0,0,0,0,0,0,0,0,0,0,0,0,0,0,0,0,0,0,0,0,0,0,0,0,0,0,0,0,0,0,0,0,0,0,0,0,0,0,0,0,0,0,0,0,0,0,0,0,0,0,0,0,0,0,0,0,0,0,0,0,0,0,0,0,0],"split_type":[0,0,0,0,0,0,0,0,0,0,0,0,0,0,0,0,0,0,0,0,0,0,0,0,0,0,0,0,0,0,0,0,0,0,0,0,0,0,0,0,0,0,0,0,0,0,0,0,0,0,0,0,0,0,0,0,0,0,0,0,0,0,0,0,0,0,0,0,0,0,0,0,0,0,0,0,0,0,0,0,0,0,0,0,0,0,0,0,0,0,0,0,0,0,0,0,0,0,0,0,0,0,0,0,0,0,0,0,0,0,0,0,0,0,0,0,0,0,0,0,0,0,0,0,0,0,0],"sum_hessian":[3.7631402E4,2.6102492E4,1.1528909E4,1.0340371E4,1.5762121E4,7.5904023E3,3.938507E3,1.0221147E4,1.1922389E2,5.554305E3,1.0207816E4,1.2789513E3,6.311451E3,3.5350112E3,4.0349597E2,9.07398E3,1.1471671E3,1.0034469E2,1.8879202E1,2.3587407E3,3.1955647E3,4.215665E3,5.992151E3,9.0263385E2,3.763175E2,4.1757407E3,2.1357104E3,3.4809568E3,5.4054424E1,1.4173804E2,2.6175793E2,9.415789E1,8.979822E3,6.724442E2,4.7472293E2,6.157126E1,3.8773434E1,1.4039829E1,4.8393736E0,6.385822E2,1.7201584E3,2.050154E3,1.1454108E3,4.667836E2,3.7488813E3,2.20777E3,3.784381E3,4.256466E2,4.7698727E2,1.0227028E2,2.740472E2,4.040531E3,1.3520987E2,5.2306614E1,2.0834038E3,2.3556184E3,1.1253383E3,3.7877842E1,1.6176584E1,8.011563E1,6.1622402E1,2.559832E2,5.774737E0,3.301424E1,6.114365E1,8.899267E3,8.055529E1,3.5035684E2,3.2208737E2,4.427525E2,3.1970428E1,3.583405E1,2.573721E1,4.6379213E0,3.4135513E1,7.3331227E0,6.706706E0,3.0233004E0,1.816073E0,7.8766174E1,5.5981604E2,7.1269183E2,1.0074666E3,7.423002E2,1.3078539E3,8.321724E1,1.0621935E3,3.752438E2,9.15398E1,1.3606657E1,3.7352747E3,7.0391284E2,1.5038572E3,1.0578937E3,2.7264873E3,1.832787E2,2.4236789E2,4.596535E2,1.7333757E1,6.0495686E1,4.1774597E1,2.3532536E2,3.8721848E1,6.8408134E1,3.9721228E3,1.0335257E2,3.1857294E1,3.602331E1,1.6283302E1,1.9865438E3,9.686003E1,3.5692752E2,1.9986909E3,5.0004178E2,6.252965E2,3.4294426E1,3.5834174E0,9.289174E0,6.887409E0,3.3383366E1,4.6732265E1,5.5209663E1,6.41274E0,9.446913E1,1.6151405E2,1.1396338E0,4.635103E0],"tree_param":{"num_deleted":"0","num_feature":"5","num_nodes":"127","size_leaf_vector":"1"}},{"base_weights":[-1.5326976E-4,9.748097E-3,-4.1796308E-2,-1.3771721E-2,3.4299616E-2,-8.397818E-2,-1.0928129E-2,-3.5097715E-2,4.4886507E-2,4.0147204E-2,-1.3283113E-1,-2.2953452E-1,-6.770125E-2,-4.3131383E-3,-2.095433E-1,-4.527484E-2,2.3785083E-2,-1.0616686E-3,1.0143555E-1,5.2224128E-3,6.3779406E-2,-2.0210547E-2,-3.7192893E-1,-3.4981763E-1,-1.01792686E-1,-9.037562E-2,1.2130413E-2,8.4828176E-2,-2.344717E-2,-2.5758812E-1,6.478542E-1,2.5165102E-1,-4.8557833E-2,6.065816E-2,-1.2746355E-1,-2.9961824E-1,6.491827E-3,-5.619524E-1,1.05445795E-1,-3.01949E-2,4.5453936E-2,4.7133297E-2,1.3674118E-1,6.97299E-2,-2.4598879E-1,-8.0246824E-1,-2.4945518E-1,-1.9129461E-1,-4.5251733E-1,9.721141E-1,-1.3316686E-1,-8.689409E-2,-7.8409624E-1,7.2068766E-2,-1.4686385E-1,-4.850069E-2,1.4664413E-1,-2.0790099E-1,3.3480674E-4,-1.0238315E0,-2.1001343E-1,-8.982305E-2,9.6160024E-1,1.0800282E-1,-1.0318736E-1,-7.3359266E-2,-1.3066755E-2,1.4218136E-2,9.88123E-2,-3.0330235E-2,-3.6104715E-1,-1.09227695E-1,3.3425033E-1,-1.11967415E-1,3.598033E-3,1.5141468E-1,-3.605627E-1,3.6616854E-2,-1.0696655E-2,-2.1217712E-3,-5.934791E-2,4.2312317E-2,5.904675E-3,4.1847456E-2,7.3567447E-3,1.5985783E-2,5.716418E-2,-2.0715421E-1,3.6933787E-2,-9.994317E-2,5.0146025E-2,-3.2944778E-1,-1.540587E-1,2.08225E-3,-1.3659981E-1,-7.708994E-2,2.545596E-1,-2.2570911E-1,-8.424284E-2,3.2726574E-1,8.704774E-2,4.055768E-2,-6.467287E-2,7.3975995E-2,-2.7712243E-2,-3.205346E-1,-6.311572E-2,-1.6946722E-2,4.6190735E-2,-1.3347237E-1,1.2662322E-3,-2.6683478E-2,1.8710257E-1,-8.264818E-2,5.376072E-2,-1.0637074E-1,-1.8554056E-2,-4.4628885E-3,4.3435812E-2,-7.395865E-2,-3.677714E-1,-3.6791723E-2,-1.8341006E-1,4.3534055E-2,-8.7982714E-2,4.1113642E-1,1.343453E-1],"categories":[],"categories_nodes":[],"categories_segments":[],"categories_sizes":[],"default_left":[0,0,0,0,0,0,0,0,0,0,0,0,0,0,0,0,0,0,0,0,0,0,0,0,0,0,0,0,0,0,0,0,0,0,0,0,0,0,0,0,0,0,0,0,0,0,0,0,0,0,0,0,0,0,0,0,0,0,0,0,0,0,0,0,0,0,0,0,0,0,0,0,0,0,0,0,0,0,0,0,0,0,0,0,0,0,0,0,0,0,0,0,0,0,0,0,0,0,0,0,0,0,0,0,0,0,0,0,0,0,0,0,0,0,0,0,0,0,0,0,0,0,0,0,0,0,0],"id":10,"left_children":[1,3,5,7,9,11,13,15,17,19,21,23,25,27,29,31,33,35,37,39,41,43,45,47,49,51,53,55,57,59,61,63,65,67,69,71,73,75,77,79,81,83,85,87,89,91,93,95,97,99,101,103,105,107,109,111,113,115,117,119,121,123,125,-1,-1,-1,-1,-1,-1,-1,-1,-1,-1,-1,-1,-1,-1,-1,-1,-1,-1,-1,-1,-1,-1,-1,-1,-1,-1,-1,-1,-1,-1,-1,-1,-1,-1,-1,-1,-1,-1,-1,-1,-1,-1,-1,-1,-1,-1,-1,-1,-1,-1,-1,-1,-1,-1,-1,-1,-1,-1,-1,-1,-1,-1,-1,-1],"loss_changes":[1.54640045E1,1.7497238E1,9.379775E0,1.936115E1,1.4494207E1,7.1967106E0,5.4662967E0,6.8027744E0,1.0722765E1,1.1822664E1,1.3493953E1,4.662424E0,4.959771E0,6.872517E0,5.691113E0,9.446304E0,9.339712E0,5.138659E0,4.9808464E0,8.240457E0,1.0369991E1,6.9602075E0,8.262558E0,2.4705143E0,5.1730213E0,5.0848713E0,5.7936597E0,5.875765E0,1.455105E1,4.440282E0,1.7991409E0,6.9647546E0,9.373232E0,4.7819986E0,9.1912155E0,5.5308905E0,4.6474986E0,8.302151E0,4.31616E0,1.19201565E1,6.66708E0,1.4526934E1,7.114235E0,1.0039767E1,3.57084E0,2.4342613E0,6.6753283E0,4.5531187E0,4.6584435E0,3.7394047E-2,3.26511E0,3.9044304E0,1.4929485E0,4.6558666E0,7.497839E0,6.2078247E0,6.7392473E0,8.093298E0,6.4604564E0,8.2985115E-1,4.1856704E0,1.9182578E-1,4.9489546E-1,0E0,0E0,0E0,0E0,0E0,0E0,0E0,0E0,0E0,0E0,0E0,0E0,0E0,0E0,0E0,0E0,0E0,0E0,0E0,0E0,0E0,0E0,0E0,0E0,0E0,0E0,0E0,0E0,0E0,0E0,0E0,0E0,0E0,0E0,0E0,0E0,0E0,0E0,0E0,0E0,0E0,0E0,0E0,0E0,0E0,0E0,0E0,0E0,0E0,0E0,0E0,0E0,0E0,0E0,0E0,0E0,0E0,0E0,0E0,0E0,0E0,0E0,0E0,0E0],"parents":[2147483647,0,0,1,1,2,2,3,3,4,4,5,5,6,6,7,7,8,8,9,9,10,10,11,11,12,12,13,13,14,14,15,15,16,16,17,17,18,18,19,19,20,20,21,21,22,22,23,23,24,24,25,25,26,26,27,27,28,28,29,29,30,30,31,31,32,32,33,33,34,34,35,35,36,36,37,37,38,38,39,39,40,40,41,41,42,42,43,43,44,44,45,45,46,46,47,47,48,48,49,49,50,50,51,51,52,52,53,53,54,54,55,55,56,56,57,57,58,58,59,59,60,60,61,61,62,62],"right_children":[2,4,6,8,10,12,14,16,18,20,22,24,26,28,30,32,34,36,38,40,42,44,46,48,50,52,54,56,58,60,62,64,66,68,70,72,74,76,78,80,82,84,86,88,90,92,94,96,98,100,102,104,106,108,110,112,114,116,118,120,122,124,126,-1,-1,-1,-1,-1,-1,-1,-1,-1,-1,-1,-1,-1,-1,-1,-1,-1,-1,-1,-1,-1,-1,-1,-1,-1,-1,-1,-1,-1,-1,-1,-1,-1,-1,-1,-1,-1,-1,-1,-1,-1,-1,-1,-1,-1,-1,-1,-1,-1,-1,-1,-1,-1,-1,-1,-1,-1,-1,-1,-1,-1,-1,-1,-1],"split_conditions":[1.1093988E0,2.5398888E-2,1.6513988E0,9.453517E-1,1.7057315E0,-1.1412718E0,2.52363E0,9.2252415E-1,-5.166011E-1,-3.278423E-1,5.6739885E-1,1.0033472E-1,1.0160847E0,-9.4990164E-1,3.84264E5,-1.1659026E0,2.6534493E0,-1.1978592E0,-1.1735997E0,-8.7182164E-2,6.340366E-1,1.9497603E0,-7.939766E-1,-2.860234E-1,9.332E3,2.3579438E0,1.599632E0,-1.1033633E0,-7.853753E-1,1.8629E4,-1.080753E0,3.02276E-1,-1.1240494E0,2.5325736E-1,8.9937526E-1,2.1669586E0,-1.1615729E0,1.7879868E0,3.56338E5,-4.6577165E-1,1.5803222E-1,-8.6609846E-1,-8.7244916E-1,-1.1401616E0,2.128474E-1,1.8542708E0,1.89138E5,-3.2354695E-1,3.7737373E-1,-1.3534708E0,-1.4949368E0,-1.088222E0,3.7948772E-1,-5.7370394E-1,-6.2088406E-1,3.79709E5,2.7785E4,2.5900286E-1,1.4086529E0,6.294E3,1.0868177E0,-7.168738E-1,-3.632088E-1,1.0800282E-1,-1.0318736E-1,-7.3359266E-2,-1.3066755E-2,1.4218136E-2,9.88123E-2,-3.0330235E-2,-3.6104715E-1,-1.09227695E-1,3.3425033E-1,-1.11967415E-1,3.598033E-3,1.5141468E-1,-3.605627E-1,3.6616854E-2,-1.0696655E-2,-2.1217712E-3,-5.934791E-2,4.2312317E-2,5.904675E-3,4.1847456E-2,7.3567447E-3,1.5985783E-2,5.716418E-2,-2.0715421E-1,3.6933787E-2,-9.994317E-2,5.0146025E-2,-3.2944778E-1,-1.540587E-1,2.08225E-3,-1.3659981E-1,-7.708994E-2,2.545596E-1,-2.2570911E-1,-8.424284E-2,3.2726574E-1,8.704774E-2,4.055768E-2,-6.467287E-2,7.3975995E-2,-2.7712243E-2,-3.205346E-1,-6.311572E-2,-1.6946722E-2,4.6190735E-2,-1.3347237E-1,1.2662322E-3,-2.6683478E-2,1.8710257E-1,-8.264818E-2,5.376072E-2,-1.0637074E-1,-1.8554056E-2,-4.4628885E-3,4.3435812E-2,-7.395865E-2,-3.677714E-1,-3.6791723E-2,-1.8341006E-1,4.3534055E-2,-8.7982714E-2,4.1113642E-1,1.343453E-1],"split_indices":[2,2,2,3,3,3,4,4,2,3,2,4,3,1,0,1,4,4,1,4,4,3,4,1,0,1,3,1,1,0,1,4,1,1,3,1,1,4,0,3,4,4,1,4,1,3,0,1,1,3,3,3,3,1,4,0,0,4,3,0,3,3,3,0,0,0,0,0,0,0,0,0,0,0,0,0,0,0,0,0,0,0,0,0,0,0,0,0,0,0,0,0,0,0,0,0,0,0,0,0,0,0,0,0,0,0,0,0,0,0,0,0,0,0,0,0,0,0,0,0,0,0,0,0,0,0,0],"split_type":[0,0,0,0,0,0,0,0,0,0,0,0,0,0,0,0,0,0,0,0,0,0,0,0,0,0,0,0,0,0,0,0,0,0,0,0,0,0,0,0,0,0,0,0,0,0,0,0,0,0,0,0,0,0,0,0,0,0,0,0,0,0,0,0,0,0,0,0,0,0,0,0,0,0,0,0,0,0,0,0,0,0,0,0,0,0,0,0,0,0,0,0,0,0,0,0,0,0,0,0,0,0,0,0,0,0,0,0,0,0,0,0,0,0,0,0,0,0,0,0,0,0,0,0,0,0,0],"sum_hessian":[3.75026E4,3.02992E4,7.203403E3,1.5474963E4,1.4824236E4,3.0431575E3,4.160245E3,1.1349207E4,4.1257563E3,1.4323832E4,5.004039E2,3.047582E2,2.7383994E3,4.0271409E3,1.3310448E2,9.67691E3,1.6722968E3,2.2767747E3,1.8489816E3,5.781249E3,8.542583E3,3.4091132E2,1.5949257E2,1.5606615E2,1.4869208E2,2.1325615E3,6.058378E2,7.110552E2,3.3160857E3,1.267041E2,6.400376E0,1.04996475E2,9.571913E3,1.3449973E3,3.2729947E2,5.5227E1,2.2215476E3,1.0274108E1,1.8387075E3,3.0747134E3,2.7065356E3,6.957001E3,1.5855825E3,2.4428838E2,9.662295E1,3.4092606E1,1.2539996E2,6.248284E1,9.3583305E1,3.3695986E0,1.4532248E2,2.123032E3,9.529473E0,4.403714E2,1.6546642E2,2.2530891E2,4.8574625E2,3.7783588E2,2.9382498E3,6.2073483E0,1.2049675E2,2.1228514E0,4.2775245E0,8.916954E1,1.5826938E1,2.3703947E2,9.334874E3,1.2828496E3,6.21477E1,3.2054016E2,6.759311E0,5.3528374E1,1.6986282E0,3.0773153E1,2.1907744E3,3.9317255E0,6.3423824E0,1.6451735E3,1.935341E2,2.702926E3,3.7178732E2,5.7380853E2,2.132727E3,1.3672079E3,5.589793E3,6.223245E2,9.6325806E2,1.5244886E1,2.2904349E2,7.995049E1,1.6672455E1,1.5465286E1,1.8627321E1,5.6278297E1,6.9121666E1,5.9479218E1,3.0036259E0,3.2845287E1,6.0738018E1,2.359087E0,1.0105116E0,3.3991505E1,1.1133097E2,3.361221E1,2.08942E3,5.794938E0,3.7345357E0,1.714924E2,2.68879E2,5.5007862E1,1.1045856E2,2.133401E2,1.1968808E1,3.4247284E1,4.5149896E2,1.8780936E2,1.9002654E2,2.6591328E3,2.791168E2,1.7388016E0,4.468547E0,1.00026596E2,2.0470156E1,1.1182731E0,1.0045782E0,1.4534922E0,2.824032E0],"tree_param":{"num_deleted":"0","num_feature":"5","num_nodes":"127","size_leaf_vector":"1"}},{"base_weights":[-1.831279E-4,9.508491E-3,-3.360445E-2,-2.6376073E-3,1.3956966E-1,-1.269818E-1,-5.7937815E-3,9.969612E-3,-1.08808614E-1,1.2890574E-1,9.8905843E-1,6.116998E-1,-1.3525294E-1,2.3067515E-1,-1.4457702E-2,7.015564E-2,-9.537223E-3,-2.1378358E-1,-1.9910907E-2,1.3306698E-1,-6.9056535E-1,1.1776114E0,6.0675234E-1,9.2351866E-1,3.345374E-5,-5.278838E-2,-1.9992284E-1,3.6712676E-1,-1.5623558E-1,1.1446423E-1,-3.1625047E-2,4.4325054E-2,4.4536686E-1,-6.688761E-2,3.4542773E-2,-2.5767472E-1,6.3010394E-3,-1.452227E-1,5.7533793E-2,-2.7877164E-1,1.4123595E-1,-1.0901245E0,-3.445786E-2,3.9320457E-1,6.165472E-1,-8.8780695E-1,1.1070691E0,1.1588653E0,-1.5667078E-1,-3.116942E-1,1.7828265E-1,-2.0272776E-1,4.0538758E-2,-2.380748E-1,1.1511636E-2,5.4332938E-2,5.5603456E-1,-3.559691E-1,1.9871224E-1,3.2986306E-2,4.396361E-1,-5.7033826E-2,5.4604795E-2,2.1522397E-2,-1.1143927E-1,6.554583E-2,2.0657688E-1,-4.408189E-2,-5.401694E-3,-8.537448E-2,1.269957E-2,-1.105162E-1,-4.960465E-2,-9.042427E-2,2.8337732E-2,3.2044623E-2,-7.162181E-2,2.1220155E-2,-1.4228362E-1,-1.1898095E-1,2.5377536E-1,6.0419064E-2,2.6977004E-2,-1.14427485E-1,-3.8235736E-1,-1.366567E-1,7.578275E-2,-1.983249E-1,3.2020533E-1,-4.0598485E-1,-1.7555982E-2,4.51731E-2,3.6112803E-1,-8.407123E-2,4.273378E-1,1.4069625E-2,-1.7099743E-1,-8.0357485E-2,1.6520865E-1,4.467617E-1,7.05086E-3,-3.837288E-2,-9.049784E-2,-2.3169106E-2,1.4022309E-1,-4.1706428E-2,2.5555965E-1,2.9555267E-1,1.1161659E-1,-7.6988995E-2,-3.9464965E-1,4.2970324E-1,-5.5966698E-2,5.6025106E-3,4.612808E-1,-7.2104454E-2,1.5694892E-1,-8.133449E-3,-4.78832E-2,3.712606E-2,-2.2998316E-2],"categories":[],"categories_nodes":[],"categories_segments":[],"categories_sizes":[],"default_left":[0,0,0,0,0,0,0,0,0,0,0,0,0,0,0,0,0,0,0,0,0,0,0,0,0,0,0,0,0,0,0,0,0,0,0,0,0,0,0,0,0,0,0,0,0,0,0,0,0,0,0,0,0,0,0,0,0,0,0,0,0,0,0,0,0,0,0,0,0,0,0,0,0,0,0,0,0,0,0,0,0,0,0,0,0,0,0,0,0,0,0,0,0,0,0,0,0,0,0,0,0,0,0,0,0,0,0,0,0,0,0,0,0,0,0,0,0,0,0,0,0],"id":11,"left_children":[1,3,5,7,9,11,13,15,17,19,21,23,25,27,29,31,33,35,37,39,41,43,45,47,49,51,53,55,57,59,61,63,65,67,69,71,73,75,77,79,81,83,85,-1,87,89,91,93,-1,95,-1,97,99,101,103,105,107,109,111,113,115,117,119,-1,-1,-1,-1,-1,-1,-1,-1,-1,-1,-1,-1,-1,-1,-1,-1,-1,-1,-1,-1,-1,-1,-1,-1,-1,-1,-1,-1,-1,-1,-1,-1,-1,-1,-1,-1,-1,-1,-1,-1,-1,-1,-1,-1,-1,-1,-1,-1,-1,-1,-1,-1,-1,-1,-1,-1,-1,-1],"loss_changes":[1.2107373E1,4.5775608E1,2.1820107E1,3.547534E1,2.2292671E1,1.1863745E1,1.3269923E1,2.7814228E1,2.624759E1,8.430767E0,1.4865017E0,4.1068945E0,1.016317E1,1.2143428E1,1.383096E1,5.618338E1,4.52347E1,1.2460804E1,1.4801163E1,8.227699E0,3.2436857E0,6.392555E-1,1.0066612E1,5.4579268E0,1.7173046E0,1.1760573E1,8.624775E0,9.9876995E0,4.351898E0,1.9442434E1,1.20846E1,6.188623E1,2.0454353E1,3.0426163E1,2.5160824E1,1.0931137E1,5.8725896E0,1.3754877E1,6.6518774E0,6.6534863E0,7.3512497E0,5.262079E-1,8.125118E-1,0E0,3.933629E0,1.3111095E0,7.016287E-1,5.2059917E0,0E0,5.899606E-1,0E0,1.596636E1,1.2760776E1,6.3043594E0,6.684827E0,1.0133433E1,7.9703827E0,3.3799267E0,1.0907023E1,1.2639537E1,8.478445E0,1.3069916E1,1.1405711E1,0E0,0E0,0E0,0E0,0E0,0E0,0E0,0E0,0E0,0E0,0E0,0E0,0E0,0E0,0E0,0E0,0E0,0E0,0E0,0E0,0E0,0E0,0E0,0E0,0E0,0E0,0E0,0E0,0E0,0E0,0E0,0E0,0E0,0E0,0E0,0E0,0E0,0E0,0E0,0E0,0E0,0E0,0E0,0E0,0E0,0E0,0E0,0E0,0E0,0E0,0E0,0E0,0E0,0E0,0E0,0E0,0E0,0E0],"parents":[2147483647,0,0,1,1,2,2,3,3,4,4,5,5,6,6,7,7,8,8,9,9,10,10,11,11,12,12,13,13,14,14,15,15,16,16,17,17,18,18,19,19,20,20,21,21,22,22,23,23,24,24,25,25,26,26,27,27,28,28,29,29,30,30,31,31,32,32,33,33,34,34,35,35,36,36,37,37,38,38,39,39,40,40,41,41,42,42,44,44,45,45,46,46,47,47,49,49,51,51,52,52,53,53,54,54,55,55,56,56,57,57,58,58,59,59,60,60,61,61,62,62],"right_children":[2,4,6,8,10,12,14,16,18,20,22,24,26,28,30,32,34,36,38,40,42,44,46,48,50,52,54,56,58,60,62,64,66,68,70,72,74,76,78,80,82,84,86,-1,88,90,92,94,-1,96,-1,98,100,102,104,106,108,110,112,114,116,118,120,-1,-1,-1,-1,-1,-1,-1,-1,-1,-1,-1,-1,-1,-1,-1,-1,-1,-1,-1,-1,-1,-1,-1,-1,-1,-1,-1,-1,-1,-1,-1,-1,-1,-1,-1,-1,-1,-1,-1,-1,-1,-1,-1,-1,-1,-1,-1,-1,-1,-1,-1,-1,-1,-1,-1,-1,-1,-1],"split_conditions":[7.1556675E-1,2.8356487E-1,1.0162363E0,8.632568E-2,1.3264067E0,-1.1834347E0,-1.2411323E0,-5.7761097E-1,-4.766403E-1,1.9002472E0,5.3564614E-1,1.458166E0,-4.4910293E-2,1.1221842E0,1.1648872E0,-5.920353E-1,-8.1616384E-1,2.4219275E-1,1.5800528E-1,-1.1978592E0,4.1008657E-1,2.99846E5,5.847154E-1,3.54824E5,1.7941477E0,-6.064597E-1,1.4086529E0,1.9432604E0,1.7941477E0,1.1254394E0,2.0755548E0,-6.497328E-1,1.672887E-1,2.7342722E-1,-5.1991343E-1,6.118921E-2,-1.0824641E0,-1.304553E-1,2.6534493E0,6.5735716E-1,5.3564614E-1,-1.1401616E0,-1.0824641E0,3.9320457E-1,-2.7479255E-1,-1.3332655E-1,5.2836E4,7.3480964E-1,-1.5667078E-1,1.27084E5,1.7828265E-1,-1.510098E-1,-5.920353E-1,8.233267E-1,3.31183E5,7.154695E-1,1.25447E5,1.7410979E0,1.8295143E0,1.110041E0,-1.1059053E0,1.9591358E0,2.2492216E0,2.1522397E-2,-1.1143927E-1,6.554583E-2,2.0657688E-1,-4.408189E-2,-5.401694E-3,-8.537448E-2,1.269957E-2,-1.105162E-1,-4.960465E-2,-9.042427E-2,2.8337732E-2,3.2044623E-2,-7.162181E-2,2.1220155E-2,-1.4228362E-1,-1.1898095E-1,2.5377536E-1,6.0419064E-2,2.6977004E-2,-1.14427485E-1,-3.8235736E-1,-1.366567E-1,7.578275E-2,-1.983249E-1,3.2020533E-1,-4.0598485E-1,-1.7555982E-2,4.51731E-2,3.6112803E-1,-8.407123E-2,4.273378E-1,1.4069625E-2,-1.7099743E-1,-8.0357485E-2,1.6520865E-1,4.467617E-1,7.05086E-3,-3.837288E-2,-9.049784E-2,-2.3169106E-2,1.4022309E-1,-4.1706428E-2,2.5555965E-1,2.9555267E-1,1.1161659E-1,-7.6988995E-2,-3.9464965E-1,4.2970324E-1,-5.5966698E-2,5.6025106E-3,4.612808E-1,-7.2104454E-2,1.5694892E-1,-8.133449E-3,-4.78832E-2,3.712606E-2,-2.2998316E-2],"split_indices":[1,1,1,1,4,4,4,4,4,3,1,3,3,3,1,4,1,1,1,4,1,0,1,0,3,4,3,1,3,1,1,4,3,4,4,3,4,4,4,1,1,4,4,0,3,3,0,1,0,0,0,3,4,1,0,3,0,3,3,4,3,1,1,0,0,0,0,0,0,0,0,0,0,0,0,0,0,0,0,0,0,0,0,0,0,0,0,0,0,0,0,0,0,0,0,0,0,0,0,0,0,0,0,0,0,0,0,0,0,0,0,0,0,0,0,0,0,0,0,0,0],"split_type":[0,0,0,0,0,0,0,0,0,0,0,0,0,0,0,0,0,0,0,0,0,0,0,0,0,0,0,0,0,0,0,0,0,0,0,0,0,0,0,0,0,0,0,0,0,0,0,0,0,0,0,0,0,0,0,0,0,0,0,0,0,0,0,0,0,0,0,0,0,0,0,0,0,0,0,0,0,0,0,0,0,0,0,0,0,0,0,0,0,0,0,0,0,0,0,0,0,0,0,0,0,0,0,0,0,0,0,0,0,0,0,0,0,0,0,0,0,0,0,0,0],"sum_hessian":[3.737721E4,2.8975516E4,8.401694E3,2.6501578E4,2.4739385E3,1.9272333E3,6.4744614E3,2.3689488E4,2.8120894E3,2.4444048E3,2.9533697E1,2.053276E1,1.9067006E3,2.2792624E2,6.246535E3,5.7979624E3,1.7891525E4,1.2888016E3,1.5232877E3,2.4328884E3,1.1516502E1,1.838564E1,1.1148059E1,1.3262093E1,7.2706676E0,8.388491E2,1.0678514E3,1.6853885E2,5.938739E1,7.3338116E2,5.5131543E3,5.4255693E3,3.7239325E2,7.7751416E3,1.0116384E4,1.0743707E3,2.1443088E2,5.8149945E2,9.4178827E2,4.6674362E1,2.386214E3,6.746492E0,4.77001E0,1.3781051E1,4.604587E0,2.6017008E0,8.546358E0,1.1576115E1,1.6859782E0,5.080837E0,2.1898308E0,3.2136765E2,5.1748145E2,9.0451227E2,1.633392E2,6.3945465E1,1.0459339E2,3.8000923E1,2.1386467E1,5.8731885E2,1.4606233E2,4.25863E3,1.2545239E3,5.090725E3,3.3484424E2,1.936514E2,1.7874184E2,2.9469822E3,4.828159E3,2.4018887E2,9.876195E3,4.8717938E2,5.8719135E2,4.7213474E1,1.672174E2,1.5733134E2,4.2416812E2,9.1982446E2,2.1963858E1,4.2834084E1,3.8402781E0,1.0970568E3,1.2891573E3,2.026513E0,4.719979E0,1.6958112E0,3.074199E0,1.0792929E0,3.5252943E0,1.261668E0,1.3400328E0,1.0194085E0,7.52695E0,1.794983E0,9.781132E0,2.4700742E0,2.6107626E0,2.9639032E2,2.4977314E1,5.010286E0,5.124712E2,3.3211304E2,5.7239923E2,1.374205E2,2.59187E1,5.2132187E1,1.1813279E1,3.0078636E1,7.4514755E1,3.5584362E1,2.416559E0,4.442797E0,1.6943668E1,5.82788E2,4.53082E0,1.5773605E1,1.3028873E2,3.297881E3,9.6074915E2,8.2171497E2,4.32809E2],"tree_param":{"num_deleted":"0","num_feature":"5","num_nodes":"121","size_leaf_vector":"1"}},{"base_weights":[-7.485513E-5,-2.1391332E-1,1.4646297E-3,-3.3599252E-1,1.8015471E-1,-7.0344925E-2,5.7363627E-3,-1.7487876E-1,-8.126386E-1,1.0095934E0,1.0591791E-1,-2.3504046E-1,-4.7999613E-2,1.8104812E-2,-1.4725593E-2,-3.196625E-1,1.6174215E-1,-1.0241156E0,-5.248896E-1,4.7776443E-1,-8.719745E-2,-3.836345E-2,4.7717643E-1,-3.3204043E-1,-1.7127257E-2,-2.3002563E-2,-1.4695376E-1,-2.1341536E-3,5.7886783E-2,-4.290807E-2,5.9234593E-3,7.7910726E-3,-4.174368E-1,3.7180874E-1,-9.98055E-1,-2.7460915E-1,-3.5956293E-1,-8.1686574E-1,3.310328E-1,2.639061E-1,-3.8550735E-1,-1.0990139E-1,6.0884994E-1,-7.798474E-3,-3.9927754E-1,-3.245077E-1,3.5345078E-1,-2.927928E-2,1.1589946E0,-3.4010193E-1,-1.6977353E-2,-1.4381172E-2,4.1830532E-2,1.06770486E-1,2.599663E-2,3.7858464E-2,-5.834844E-2,-6.470632E-3,1.4298947E-1,7.1604E-2,-1.8994473E-1,-2.4080706E-1,-9.939786E-2,-1.5161254E-1,1.6714501E-1,-5.3651612E-2,-3.4904522E-1,2.309814E-1,-3.4419847E-1,-3.3824056E-1,-1.1928692E-1,2.4366453E-1,-1.603415E-1,-1.02881946E-1,1.759794E-1,5.4716274E-2,-2.5401914E-1,-1.5112053E-1,1.1114724E-1,3.5061294E-1,1.2591055E-1,-5.2049108E-2,2.2269842E-1,-5.587472E-2,-1.6320571E-1,4.994475E-2,-1.6256098E-1,2.631913E-1,-6.990607E-2,-3.3492092E-2,3.8886606E-3,4.8964927E-1,1.3029253E-1,-2.6739162E-1,-6.199214E-2,1.9790924E-1,-2.9256256E-2,1.1114362E-2,-7.067624E-3,-9.723152E-3,2.0159077E-2,7.467308E-2,1.6706556E-2,-1.01552926E-1,1.0014236E-2,-1.3086183E-3,1.03039235E-1,-1.6960862E-1,-1.4832445E-2,4.142173E-3,-1.4258421E-2,-2.67936E-3,7.283646E-2],"categories":[],"categories_nodes":[],"categories_segments":[],"categories_sizes":[],"default_left":[0,0,0,0,0,0,0,0,0,0,0,0,0,0,0,0,0,0,0,0,0,0,0,0,0,0,0,0,0,0,0,0,0,0,0,0,0,0,0,0,0,0,0,0,0,0,0,0,0,0,0,0,0,0,0,0,0,0,0,0,0,0,0,0,0,0,0,0,0,0,0,0,0,0,0,0,0,0,0,0,0,0,0,0,0,0,0,0,0,0,0,0,0,0,0,0,0,0,0,0,0,0,0,0,0,0,0,0,0,0,0,0,0],"id":12,"left_children":[1,3,5,7,9,11,13,15,17,19,21,23,25,27,29,31,33,35,37,-1,-1,39,41,43,45,47,49,51,53,55,57,59,61,63,65,67,-1,69,71,73,75,77,79,81,83,85,87,89,91,93,95,97,99,101,103,105,107,109,111,-1,-1,-1,-1,-1,-1,-1,-1,-1,-1,-1,-1,-1,-1,-1,-1,-1,-1,-1,-1,-1,-1,-1,-1,-1,-1,-1,-1,-1,-1,-1,-1,-1,-1,-1,-1,-1,-1,-1,-1,-1,-1,-1,-1,-1,-1,-1,-1,-1,-1,-1,-1,-1,-1],"loss_changes":[1.2286314E1,1.2894102E1,1.1367037E1,1.5525557E1,3.8182847E0,7.645667E0,8.851908E0,7.5452876E0,2.5821419E0,4.3434863E0,3.212293E0,5.242919E0,4.5313706E0,1.7551687E1,7.668532E0,3.456193E0,1.1799059E1,3.3965607E0,6.210355E0,0E0,0E0,4.7045836E0,1.3626626E0,3.7416306E0,8.946957E0,1.0901058E1,9.271189E0,7.7807527E0,1.1456299E1,6.951123E0,1.2921804E1,3.966159E0,2.489809E0,6.856526E0,8.0351734E-1,6.9703913E0,0E0,1.8970661E0,3.2482834E0,4.909154E0,5.608668E0,9.278671E-1,9.755397E-1,3.9224517E0,4.2847404E0,4.6690874E0,1.1152025E1,5.0738883E0,1.9526539E0,1.0746807E1,1.2160457E1,5.335398E0,5.931367E0,2.1055416E1,1.1988546E1,1.154822E1,2.1099083E1,5.808647E0,9.565488E0,0E0,0E0,0E0,0E0,0E0,0E0,0E0,0E0,0E0,0E0,0E0,0E0,0E0,0E0,0E0,0E0,0E0,0E0,0E0,0E0,0E0,0E0,0E0,0E0,0E0,0E0,0E0,0E0,0E0,0E0,0E0,0E0,0E0,0E0,0E0,0E0,0E0,0E0,0E0,0E0,0E0,0E0,0E0,0E0,0E0,0E0,0E0,0E0,0E0,0E0,0E0,0E0,0E0,0E0],"parents":[2147483647,0,0,1,1,2,2,3,3,4,4,5,5,6,6,7,7,8,8,9,9,10,10,11,11,12,12,13,13,14,14,15,15,16,16,17,17,18,18,21,21,22,22,23,23,24,24,25,25,26,26,27,27,28,28,29,29,30,30,31,31,32,32,33,33,34,34,35,35,37,37,38,38,39,39,40,40,41,41,42,42,43,43,44,44,45,45,46,46,47,47,48,48,49,49,50,50,51,51,52,52,53,53,54,54,55,55,56,56,57,57,58,58],"right_children":[2,4,6,8,10,12,14,16,18,20,22,24,26,28,30,32,34,36,38,-1,-1,40,42,44,46,48,50,52,54,56,58,60,62,64,66,68,-1,70,72,74,76,78,80,82,84,86,88,90,92,94,96,98,100,102,104,106,108,110,112,-1,-1,-1,-1,-1,-1,-1,-1,-1,-1,-1,-1,-1,-1,-1,-1,-1,-1,-1,-1,-1,-1,-1,-1,-1,-1,-1,-1,-1,-1,-1,-1,-1,-1,-1,-1,-1,-1,-1,-1,-1,-1,-1,-1,-1,-1,-1,-1,-1,-1,-1,-1,-1,-1],"split_conditions":[-1.3421029E0,-6.708803E-1,-1.3994472E0,-9.090106E-1,-6.636643E-1,-1.058601E0,5.6739885E-1,-1.0191759E0,5.6739885E-1,2.07636E5,2.96791E5,4.682962E-1,9.902584E-1,2.5398888E-2,-4.5776582E-1,-5.166011E-1,1.599632E0,-1.058601E0,2.90641E5,4.7776443E-1,-8.719745E-2,9.63035E-1,-2.924758E-1,-1.5126201E0,2.18727E5,9.662048E-1,-6.064597E-1,1.1221842E0,-5.818822E-1,-7.218547E-1,9.2252415E-1,3.21749E5,2.5398888E-2,7.3343E4,-1.058601E0,2.45343E5,-3.5956293E-1,1.8497196E-1,3.59469E5,-6.259354E-2,